1225 128
107 0.08969269 -0.31664217 0.2377776 -0.5629319 0.64047444 0.047439232 0.05072234 -0.058512215 -0.04972341 0.21729916 -0.078229025 -0.24932903 -0.3810638 -0.6477223 0.1864272 -0.515008 0.2163243 0.11840113 -0.2603644 0.11199259 -0.8158763 0.5799871 -0.12826517 -0.09347569 -0.049332816 -0.17362836 0.10521167 -0.37434757 -0.3069871 -0.7085209 0.12826192 -0.068103984 -0.2915367 -0.2846021 0.011548056 -0.36490038 -0.06986163 -0.7519173 -0.26244453 -0.7198713 0.28283507 -0.00968457 0.2811384 -0.9296192 -0.041025225 -0.07370438 -0.17390078 0.038639452 -0.065459974 0.09167249 -0.58928365 0.40669894 0.45450807 0.7840946 -0.17337306 -0.054568984 -0.31680733 -0.28516313 -0.25470015 -0.155917 -0.3239579 -0.74012786 -0.3504052 0.08831277 -0.5410242 0.39179787 -0.15062778 -0.38786694 -0.4179697 -0.33017874 0.006774559 0.3033871 0.20760185 -0.3385637 0.19819467 -0.4304664 0.56788373 -0.25213566 0.22080745 -0.25494248 -0.31795627 -0.5258754 -0.033565212 -0.3314026 0.39999053 -0.3008388 0.5580077 -0.32342282 0.42532766 0.26001835 0.32547972 -0.11964107 -0.106172614 0.65079755 0.34323397 0.6012613 -0.02826166 -0.7465149 0.090725295 0.028084196 -0.07663954 0.12728085 0.33155587 -0.07885212 0.68828845 -0.16779944 0.25266373 0.38105223 0.024626661 -0.30741215 0.15042377 0.20303379 0.011198366 -0.51226836 0.14998657 -0.03821811 -0.18597253 0.60525346 0.15382637 -0.743765 0.20537978 0.07095034 0.747461 0.12206469 0.18034457 -0.009116701 -0.47603485 0.16033107
72 0.07598527 -0.36744177 0.33674026 -0.53840417 0.84171504 0.10053133 0.0315867 -0.0218489 -0.021910554 0.12727606 0.05123601 -0.15580799 -0.37705564 -0.7184217 0.17432182 -0.5741972 0.21854545 0.0057923608 -0.24665283 -0.0042222473 -0.7510243 0.6290115 -0.109177664 0.010753161 -0.13652872 -0.244084 0.056300364 -0.2898235 -0.18844584 -0.65901214 0.044684827 -0.07537479 -0.44116077 -0.27507707 0.07824282 -0.4876791 -0.049680483 -0.8955981 -0.3071065 -0.71292746 0.40924397 -0.044756755 0.395385 -0.8578317 -0.06755571 -0.036136616 -0.07696902 -0.11664134 0.004937203 0.08361646 -0.59862965 0.3945992 0.42660734 0.81472296 -0.32484198 -0.07591793 -0.22508173 -0.1335391 -0.26645932 -0.041406713 -0.5006614 -0.68225646 -0.37279373 0.087931946 -0.5284954 0.47290495 0.013015311 -0.48753065 -0.3923712 -0.3853641 0.044383187 0.21852143 0.30366954 -0.2533969 0.327793 -0.41253465 0.55415076 -0.251159 0.19912978 -0.1498046 -0.29392606 -0.4431859 -0.08363227 -0.36134833 0.40107968 -0.22417012 0.5745283 -0.25265542 0.44357142 0.35155648 0.2619206 -0.12634496 -0.14824304 0.5369583 0.17010912 0.62452614 -0.033499345 -0.91436094 0.079634495 0.10348832 -0.09784712 0.09920772 0.19819237 -0.23570304 0.72986984 -0.09467974 0.22265631 0.48458946 -0.007009187 -0.23459661 0.1226517 0.18931879 0.17394374 -0.5253442 0.035837077 -0.07949696 -0.094835095 0.55593085 0.16935782 -0.78547543 0.16259766 -0.021618012 0.8031035 0.12552138 0.1450703 0.11516262 -0.43401325 0.13793781
512 0.09595399 -0.70350283 -0.06821316 0.48903182 0.33445996 -0.044152085 0.12352912 -0.5860154 -0.00809277 0.22442454 0.09942037 -0.13519266 -0.048909422 -0.36113143 -0.16648948 -0.038392644 0.34978843 -0.5726834 -0.5977541 -0.5241523 -0.09532715 -0.019698502 -1.0570581 -0.26443985 0.24514836 -0.42748967 -0.46155524 -0.40126815 -0.10487322 -0.48936534 0.027056424 -0.30441582 -0.5237269 0.456296 -0.20385861 0.1389734 -0.30015048 -0.49410298 -0.41026688 -0.3614489 0.7167913 0.27072176 0.24890387 -0.31405002 0.1380345 -0.39263088 0.016267315 -0.53663045 0.113961495 0.16743115 -0.35489884 -0.01072667 0.47640583 0.20002377 0.30009165 -0.21783043 0.2736386 -0.16938463 -0.07555278 -0.010462476 0.056671742 0.42874584 -0.1892123 0.054212205 -0.7153937 0.47071332 -0.31958768 -0.28950623 -0.37133193 -0.27946225 0.49025086 0.34971964 -0.17767024 0.403738 0.24511603 0.066440195 0.7092412 0.17165887 -0.96240175 0.25379828 -0.52371514 0.19825386 0.02086113 0.25203916 -0.106149316 -0.13180839 0.27784505 -0.24566749 0.09803623 0.2405113 0.71994495 0.27328598 0.43457463 0.2839104 -0.13808268 0.0973842 -0.09189727 -0.3685479 0.11031995 -0.3392354 0.1250134 -0.38551977 0.115705565 -0.31909722 0.29172003 -0.038374048 -0.009861633 -0.029074557 -0.08646234 0.09869277 0.45840138 0.21599033 -0.1895447 -0.023534827 -0.34623504 -0.09459342 0.09930528 0.53252596 -0.2940959 -0.6388219 0.35209194 0.33184403 0.7632306 -0.32540795 0.1726675 -0.4513609 -0.32905686 0.05233781
547 0.15285705 -0.7204175 -0.18495911 0.4684866 0.3036128 -0.1089476 0.17868169 -0.571475 -0.027070476 0.37065253 0.19249897 -0.041877083 -0.08861737 -0.1920969 -0.22248663 -0.026784943 0.33789873 -0.47002748 -0.43795857 -0.41652754 -0.061382923 -0.12374017 -0.96798384 -0.42760503 0.21588628 -0.4550472 -0.45094106 -0.2825802 0.009121185 -0.5362147 0.032514777 -0.24903736 -0.5010375 0.3800506 -0.096852526 0.21744171 -0.2521112 -0.3424363 -0.43667942 -0.2657812 0.79209846 0.2768949 0.3010802 -0.355675 0.15161577 -0.31848505 0.06840301 -0.466817 0.14542253 0.174351 -0.34853736 -0.088416845 0.47414497 0.2442621 0.24416322 -0.29647946 0.20163319 -0.17867157 -0.09860136 -0.0041656573 -0.029835187 0.40159085 -0.21971905 0.058124017 -0.62706435 0.46112815 -0.18017077 -0.31747374 -0.43835375 -0.2510652 0.47125527 0.2791189 -0.15329735 0.3672868 0.15052523 0.042891778 0.6900803 0.18617438 -0.93127215 0.18328668 -0.39617628 -0.037361816 0.029452965 0.2485628 -0.08396935 -0.29999244 0.33694246 -0.39116913 0.118842214 0.24161437 0.69508296 0.3837643 0.42193735 0.26815972 -0.06973903 0.06785924 -0.04147491 -0.31962442 0.02370632 -0.31878 0.0043716975 -0.35372892 -0.011944373 -0.30063677 0.18015212 -0.1298541 0.07479565 0.14606738 -0.16743547 0.1304425 0.2945923 0.19985504 0.09050902 0.11380624 -0.26332006 -0.12247717 0.018229173 0.59572345 -0.32047918 -0.6040418 0.2611303 0.3137217 0.67663485 -0.26384065 0.108128875 -0.5904296 -0.3181968 0.09002814
509 0.2685695 -0.372777 -0.036676414 0.31954947 0.45139858 -0.07633235 -0.122797206 -0.50997657 0.118686035 0.07955138 0.057184655 -0.32319453 -0.11856715 -0.0055759186 -0.021578403 0.2383093 -0.10580329 -0.060291912 -0.5011397 -0.12609094 -0.105443135 0.40640366 -0.4592579 0.007934796 0.22670913 -0.5769846 -0.45847973 -0.14691724 -0.5683279 -0.40105405 -0.1611816 -0.5434853 -0.28157246 0.40644625 -0.12728153 0.014626327 0.02011369 -0.28322923 0.06087786 -0.12083911 0.6599823 0.043916866 0.2544485 -0.22117849 0.08388613 -0.22255655 0.052453637 -0.69974786 0.1362918 0.22171907 -0.2061731 0.31723505 0.49678633 -0.09297025 -0.025735151 -0.3163333 0.04584014 -0.26045626 0.03259596 0.10653691 0.06665066 0.48704416 -0.5853303 -0.11873073 -0.4234973 0.30042642 -0.0553498 -0.1330826 -0.5619357 -0.77611077 0.46317104 0.2882314 -0.16974993 -0.12811552 0.6256788 -0.04201211 1.0171298 0.01729654 -0.49607173 0.22603668 -0.4901856 0.11038111 0.4514906 0.1934159 -0.041752465 -0.44602725 0.039518245 -0.18017742 -0.40674517 0.71250606 0.20552385 0.22742122 0.5718352 -0.03931358 0.009844088 0.22308858 -0.12374986 -0.52297455 0.08416937 -0.66506934 0.13872376 -0.42807457 -0.16541448 -0.47937435 0.4539601 0.2229111 0.1313708 -0.013676622 -0.03451763 0.044650655 0.37416273 0.15218501 -0.050517395 -0.22886215 -0.262946 -0.16550444 0.19650316 0.6731706 -0.3458046 -0.57927924 0.23833416 0.38601297 0.907829 -0.11571897 -0.13450675 -0.2791131 -0.33700335 -0.057138044
928 0.24101569 -0.42265424 0.50422305 0.33233213 0.73309284 0.1052184 0.2236762 -0.798001 -0.12034955 0.5923122 -0.16114038 -0.095419995 0.29394433 -0.3613542 0.111367516 -0.6511804 0.16317351 -0.74678445 -0.3864185 0.3704382 0.26321298 0.13318737 0.17205203 -0.29454395 -0.5199555 -0.12074672 0.05446618 -0.2421727 -0.6007588 0.04429326 0.08438631 0.20179181 -0.22760434 -0.13994482 0.2300714 -0.745267 -0.020525485 0.1312749 -0.6661721 -0.20031646 0.113414794 -0.21842006 0.7949499 -0.5420303 0.3044398 0.17632918 -0.1485588 -0.2824693 -0.57448775 -0.056316867 -0.58062166 0.3856575 0.046955444 0.023558484 -0.26797938 0.06990877 0.27669057 0.11920698 -0.31172237 0.29780537 -0.057315707 -0.14058799 0.020961702 -0.29686448 -0.18468443 0.23042068 -0.79972863 -0.5520754 -0.46647248 0.047978565 -0.23575701 -0.030695586 -0.17693698 -0.1096737 0.75751776 0.03984205 -0.116353065 -0.33465478 -0.56416225 -0.1068718 -0.27371627 0.2392302 0.17769973 0.06412219 0.32805383 -0.28579056 0.39282453 -0.011021535 0.1367803 0.6839268 0.038724612 0.24037023 0.41654623 0.15047318 0.052283537 -0.20721829 -0.40208462 -0.48648503 -0.27349812 -0.050533354 0.07044102 0.2260258 0.1608241 -0.1082093 0.11122298 0.31523293 0.041312013 -0.03939071 0.13511087 0.2998098 0.04362674 0.8338113 0.3750136 0.16215084 0.16044763 0.04363887 -0.2643709 0.7009064 0.07286779 -0.5655695 0.34129286 0.05586558 0.342863 0.2037299 -0.3294843 -0.28355837 0.23716414 -0.22423972
927 0.13017829 -0.48226124 0.64379203 0.053319395 0.7181453 0.20404755 0.37695283 -0.8603 -0.12081882 0.5343393 -0.15257047 -0.09747859 0.13018842 -0.32658404 -0.071978204 -0.5988223 0.30934098 -0.7224291 -0.3022527 0.36815432 0.099074624 0.26670352 0.066971876 -0.34044057 -0.46565256 -0.19611607 0.044634197 -0.13938376 -0.6714286 0.0022396524 0.18400875 0.19581915 -0.053231843 -0.069202095 0.36224213 -0.75303024 -0.14433937 0.13556635 -0.7571525 -0.16368212 0.14244695 -0.13511583 0.80572414 -0.50197494 0.26743934 0.085670695 -0.018783275 -0.4814205 -0.57439494 0.1409708 -0.56231964 0.406114 0.026396835 0.06386422 -0.22185619 0.06551439 0.26506874 0.06896699 -0.2770789 0.27067268 0.02785958 0.0007671349 0.042252686 -0.39418438 -0.17209408 0.31315398 -0.7474888 -0.3572105 -0.52635235 -0.043468397 -0.28917074 -0.0135844 -0.23375815 -0.15540455 0.7667105 0.06252859 -0.24158452 -0.2587874 -0.4336916 -0.18946907 -0.22273298 0.29945695 -0.09446722 0.17573084 0.27014765 -0.12289536 0.4241707 0.11485777 0.21296681 0.6393572 -0.06917164 0.060327303 0.24392875 0.22487758 0.01675918 -0.21448119 -0.20057648 -0.51166964 -0.27136555 -0.08420651 0.17374122 0.25001612 0.15607011 -0.056351367 0.22316238 0.13235182 0.00021854501 0.066468194 0.31645364 0.23528218 0.15063447 0.7652029 0.4252833 0.053205244 0.14119439 0.23096633 -0.29076856 0.6279346 0.020313224 -0.48246673 0.37786248 0.09070589 0.37809935 0.28198478 -0.42896804 -0.36363804 0.29216295 -0.11960133
69 0.03376127 -0.328147 0.4531912 0.38897988 0.6633743 -0.47777122 0.0706802 -0.5739885 0.37331745 0.31069893 -0.16368833 0.26119787 -0.42926523 0.16420849 -0.22897632 0.16978453 0.16021845 -0.022213668 -0.12445932 0.30673012 0.43237165 0.69430155 -0.085258976 -0.19905855 -0.31450438 -0.27350378 -0.22932808 0.09046657 0.0778739 -0.04815613 0.12568204 0.20267977 -0.5075729 0.29650405 0.4870861 0.18751006 0.24206707 -0.13318378 -0.05952842 0.17217122 0.16821937 0.5043744 0.48899275 -0.6383519 -0.4646406 -0.72888273 0.19595791 -0.2571412 -0.7065185 -0.22587311 -0.27429992 0.14897823 0.43972847 0.5779799 -0.48492587 -0.4192365 0.24417464 0.07404601 -0.72576165 0.21410395 0.123487055 0.039319173 -0.3739153 0.057536054 -0.52512604 -0.076917954 -0.7257049 -0.3272339 0.0885099 -0.09562724 0.24704587 -0.019205809 0.8363275 -0.36288887 0.31067088 0.35334957 0.88141567 0.36643296 0.14181082 0.0393836 -0.20445725 0.034301467 0.38568044 0.42185217 0.5111819 -0.27055046 0.5421613 0.10439615 0.371078 -0.02839346 0.14531943 0.15121551 -0.3314319 -0.102379195 0.16860878 0.21301624 -0.3898899 -0.45283392 -0.20686847 -0.3801707 -0.12294022 -0.17241907 -0.116690874 -0.33645222 0.18608649 -0.71434367 0.7621431 0.2747641 0.020908495 0.24201506 -0.09456401 0.25739938 -0.24974604 0.39678577 0.29914358 0.401065 0.0895804 0.34275076 -0.3990509 0.29536712 0.40182194 0.3083889 1.1751609 0.21967869 -0.087679654 -0.06262435 0.27327338 0.26047027
53 -0.45382175 -0.24840158 0.48427218 0.0065636667 0.015726961 -0.013047213 0.15538612 -0.6701363 0.1685587 0.26771262 0.10902589 0.24741577 -0.02398738 0.0034105454 -0.15037291 -0.54034835 -0.5052842 -0.1740821 -0.72706455 -0.25405714 0.5029783 -0.023520404 0.019336713 -0.58605355 -0.19368438 0.23667896 -0.17456356 -0.18040508 0.24358329 -0.7682842 0.029105723 -0.11591325 -0.14256051 -0.2520703 0.1762703 0.17867048 -0.014586003 0.000930964 -0.46596506 0.0023789713 0.001238524 0.58694184 -0.1635744 -0.5724802 -0.35499808 0.04117907 0.05875351 -0.36220434 -0.23381855 -0.075402044 -0.7013559 -0.49500123 0.8074372 0.44101787 0.0892162 -0.61707073 0.07970967 -0.3184895 -0.40772808 -0.12005868 0.2491722 0.2970452 -0.43415883 -0.06056824 -0.3466672 0.52180755 -0.49467787 -0.41105083 -0.29160005 0.05197691 0.44158018 0.008395036 0.51972485 -0.5621607 1.096637 0.11444675 0.52444905 -0.3125516 0.10051556 -0.09192557 0.044872202 0.0217424 -0.13675883 0.038896866 0.25839472 -0.26057488 0.6966697 -0.20347331 0.29654413 0.7022321 0.079366565 0.1410862 -0.17025362 -0.14974287 -0.054294914 0.052191846 0.048413206 -0.22847022 -0.13852662 -0.16910377 0.36868516 0.41475913 0.15388444 0.40701076 0.71619475 -0.036225088 0.505337 -0.09999632 -0.1603291 -0.29493314 -0.29960087 0.15289682 0.18303265 0.35646302 -0.40697238 0.62752193 0.2520842 0.86256003 -0.045550615 -0.050778393 0.83461535 0.10925287 -0.34021717 -0.15854132 0.06386414 -0.32866973 -0.112298176 -0.29452264
104 0.110289365 -0.17716739 0.49045852 0.37928012 0.57483625 -0.46042302 -0.030470353 -0.597569 0.5638977 0.3619326 -0.08470834 0.2389247 -0.5956646 0.24067812 -0.2368208 0.13147394 0.22264007 -0.065607026 -0.12747282 0.32760137 0.38332206 0.76303613 -0.08583341 -0.12555556 -0.25397056 -0.24389483 -0.18941979 0.041504283 0.12947688 -0.07001458 0.13870351 0.1634565 -0.42079964 0.2923047 0.64725983 0.18129626 0.31489438 -0.31429476 -0.11448529 0.3261324 0.30638206 0.32150522 0.4129892 -0.6652806 -0.44071785 -0.768123 0.21276942 -0.2812371 -0.7178306 -0.20861813 -0.1730669 0.06834187 0.58046484 0.56455487 -0.43072075 -0.43977827 0.11406036 0.04074779 -0.6772027 0.24908541 -0.081324644 0.05348822 -0.19613846 -0.026230581 -0.45642954 -0.08610297 -0.6172375 -0.34870267 0.011862484 -0.15329853 0.19025674 -0.13913903 0.767892 -0.24823755 0.34631625 0.40983608 0.77286965 0.32118604 0.07310357 0.024754822 -0.2683689 0.11343488 0.3400254 0.4110228 0.5241459 -0.4387186 0.5881988 0.14760754 0.38775718 -0.06266281 0.17481825 0.13005982 -0.28688282 -0.103540674 0.18100241 0.20710501 -0.27741763 -0.50999665 -0.31430596 -0.10582823 -0.05280894 -0.2076445 -0.039918497 -0.3404427 0.17420807 -0.7792442 0.61878026 0.21337251 0.06872839 0.16382329 -0.005533417 0.39502293 -0.13142858 0.24185278 0.23980904 0.18975869 0.034410287 0.30612782 -0.47540954 0.24898253 0.6049876 0.22101206 1.195761 0.09549846 -0.14591795 -0.06394869 0.31252494 0.28105724
667 0.19383372 -0.3690173 1.1331486 0.19394945 0.5957771 -0.30492398 0.27562544 -0.21537283 0.3653162 0.89970213 0.06725037 0.054547966 -0.21898521 -0.18594804 0.46230066 -0.2858156 -0.060721688 -0.36589456 -0.4130413 -0.070308544 -0.2024361 0.2699036 -0.16051811 -0.5246314 0.29482046 -0.23690134 -0.4226076 0.6377587 0.1831686 -0.69248307 -0.22625679 -0.14054525 -0.2945837 -0.04668884 -0.12461583 -0.13342465 -0.05433286 -0.03451124 -0.5633652 -0.18525027 0.242615 0.3482222 0.10786947 -0.038901255 -0.0356744 -0.10785409 -0.010223201 -0.0051083337 -0.8235043 0.15969142 -0.60896945 0.5466701 0.35568675 0.03207223 -0.34405154 0.090937376 0.52770215 -0.029840061 -0.13503005 -0.30791596 0.044645946 0.6373015 -0.29947332 0.19076188 -0.10091727 0.18922289 0.061603215 -0.2037832 0.15599221 -0.1843075 0.07792624 0.39064547 0.47863144 -0.103440054 0.267123 0.06515538 0.6004053 -0.4311021 0.1859706 -0.30278412 -0.5318407 0.5278782 0.5134746 0.069674045 0.2714457 -0.13939567 0.87392473 -0.052498613 -0.23775 0.08076337 0.11173263 -0.09806949 0.37477767 -0.13492402 0.6057797 0.051839624 -0.04737372 -0.12177752 -0.085948125 -0.532265 -0.2882005 -0.089313924 0.7667991 -0.06835098 0.032544184 -0.2666176 0.30529305 -0.43045312 -0.28666517 0.5035154 0.14115791 0.27546114 -0.37099037 0.45654318 -0.25950915 -0.26028252 0.643762 0.23334481 0.10217395 -0.66617364 0.4028275 0.018181277 -0.14832793 0.06296775 0.3466939 -0.5778258 -0.24466272 0.21535702
275 0.54076034 0.2460001 0.08037398 0.13278766 0.3156259 -0.45113966 -0.04403974 -0.72734714 0.1985688 0.46047118 0.15415403 -0.10771846 -0.68315166 -0.27655777 -0.04339552 -0.33680397 0.27331248 0.0666047 -0.12827113 -0.11114673 0.098656885 0.54934907 -0.4788041 -0.27593157 -0.1130913 -0.023270676 -0.46751484 -0.5656047 0.41518593 -0.8005213 -0.2454215 0.11006055 -0.20488104 0.021349255 0.48367542 -0.06734324 0.51612836 -0.29636717 -0.60385865 0.15958147 0.2767941 -0.10137937 -0.369867 -0.38559413 -0.25497487 -0.53056335 0.13484423 -0.40225527 -0.67276263 0.5115567 -0.018957065 0.41483316 0.6978019 0.18715146 0.23619656 -0.23471902 -0.61207926 -0.2723944 -0.67445815 -0.10528129 -0.01284557 -0.089757524 0.24237996 -0.3098051 0.03192478 0.32129005 -0.2626739 -0.54466075 0.010287866 -0.07915922 0.21162573 -0.20898707 0.21494496 -0.01355994 0.6619018 0.00757322 -0.12937205 0.51441884 0.15435314 0.19361627 0.033141565 0.4862746 0.3762739 0.45223528 0.23570755 -0.5160451 0.5992468 -0.37787575 0.19419757 -0.34880352 0.37419644 -0.023111371 0.6388381 0.025364425 0.0474768 0.046573207 0.21642937 -0.59041995 0.0770633 0.24425201 -0.12410379 0.0022069763 0.35694885 -0.24420823 0.1730534 -0.07681447 0.31976137 -0.19812202 0.47540447 0.16678336 -0.051772032 0.3780512 -0.13651173 0.09414406 0.029957166 0.11318424 0.041228727 -0.08562362 -0.058261294 -0.48206988 0.48206404 -0.3080057 0.3691872 -0.5769125 0.12072806 -0.25823087 0.24451034 0.25086164
702 0.27370048 -0.40050685 1.2180411 0.27210292 0.547929 -0.3811002 0.18167391 -0.38841268 0.41178107 0.8281956 0.036508843 0.010506515 -0.15503111 -0.0877229 0.38287652 -0.2161673 -0.14036356 -0.2714749 -0.4377706 -0.07101203 -0.3183573 0.48021016 -0.25686324 -0.42256466 0.3866835 -0.3037265 -0.37084767 0.7283247 0.3022128 -0.7903378 -0.20718272 -0.14733918 -0.3717144 -0.02504936 -0.050099943 -0.1299861 -0.084401704 0.016778903 -0.6248358 -0.28903025 0.14954133 0.43149552 0.34245646 -0.050955303 -0.10419291 -0.06617808 0.052106068 0.16412476 -0.8993717 0.15379368 -0.559986 0.5862379 0.39148214 -0.081709825 -0.31098083 0.095254816 0.4342285 0.0136739155 -0.10660644 -0.3216632 0.10017187 0.543695 -0.23920603 0.19206543 -0.1927568 0.31505546 0.052423555 -0.13920338 0.12259471 -0.12114165 0.0637211 0.43091002 0.5047107 -0.08722184 0.34063932 -0.15469715 0.6445267 -0.4421785 0.36348173 -0.11969643 -0.4695845 0.40813404 0.46396887 0.09123745 0.34130746 -0.116893604 0.8257144 0.01757147 -0.3679539 0.013831921 -0.004313319 -0.217869 0.32995337 -0.1753575 0.6286059 0.07572817 -0.1410775 0.06791588 -0.090758935 -0.5260776 -0.25271103 -0.07256657 0.74037147 0.0397188 0.012469888 -0.22154449 0.16887662 -0.37349477 -0.3118686 0.46394518 0.21085541 0.37403297 -0.35503283 0.47508797 -0.23272794 -0.30786034 0.67533845 0.3768649 0.031454656 -0.54924375 0.32738072 -0.006137284 -0.112674356 -0.003973955 0.43471172 -0.47418046 -0.120022886 0.21053572
80 0.11065487 -0.92716926 0.5742515 -0.29689065 0.77982855 0.2854096 0.109877884 0.052180875 -0.11946162 0.18557705 -0.15556405 -0.083019726 -0.19996528 0.048602786 0.24419105 -0.13847849 -0.10196431 0.085655436 -0.103801146 0.10651008 -0.12774841 0.017318169 0.16215464 -0.15101463 0.09576002 -0.36593685 -0.47712776 -0.18486889 -0.34475935 -0.73954475 -0.031188237 -0.024103178 -0.46942276 -0.04443757 -0.08706785 0.08838916 0.14427981 0.25018397 0.15515508 -0.30394605 -0.17147402 -0.007510653 0.15382555 -0.5003808 -0.12753123 -0.35889333 0.42413595 0.30404702 -0.40602025 0.27415913 0.40060195 0.61144066 -0.077533185 0.3303148 0.23745836 -0.3743408 0.18579285 -0.26587895 -0.8672749 -0.23441587 0.20932627 -0.2044105 -0.21653776 0.28081894 -0.5831782 0.4717601 -0.79652435 -0.0702996 -0.04614132 -0.3132689 0.24791238 0.097576715 0.14729853 -0.5481108 0.7120454 0.24394757 0.12798171 -0.21082205 -0.32489064 -0.40816513 0.23814873 0.04726622 -0.17520513 0.16838677 0.027046109 -0.32868978 0.51968414 0.2056819 0.19980955 -0.11780352 0.75881344 -0.065694146 0.26720908 0.6667806 0.1343808 0.38592649 0.1958067 -0.8412561 0.09714725 0.3093714 -0.50480783 -0.44056293 0.10815596 0.06551858 0.20806125 0.16825365 0.6138338 0.113928944 -0.116228804 -0.15780148 0.45678145 0.7084409 0.07687001 -0.059185944 -0.075366855 0.10858233 -0.12236525 0.1823394 -0.4712286 -0.3835699 -0.0075804815 -0.47717565 0.36796623 0.2120066 -0.03191127 -0.49781436 -0.6568729 -0.2174195
1184 0.23298922 -0.4692 0.8168059 -0.33079925 0.44403553 0.11867364 -0.16958949 -0.37401056 -0.40352184 0.5072691 0.73302996 -0.10351989 -0.6227728 0.20361677 0.005534279 -0.6477026 0.29400903 -0.20181768 -0.1396357 -0.31847674 0.2308896 0.11139408 -0.46837342 0.21079774 -0.19090517 -0.08419321 -0.36106193 0.0051865163 0.3400905 0.17520155 -0.11642531 -0.38994467 -0.7635772 0.11323391 0.23314227 0.049187273 0.12235028 0.27974087 -0.4681354 -0.3693746 0.6230611 -0.57181305 -0.09835441 -0.47626656 -0.42095798 -0.011153204 0.44500297 -0.15783505 -0.19219494 -0.18604232 -0.11975778 0.24584614 0.48953024 0.09928247 -0.5949743 -0.17990136 0.26618382 -0.34455124 -0.13230392 0.30763718 -0.20888023 -0.15582453 -0.17432672 0.4986052 0.040567484 0.85422933 -0.8179948 -0.18383548 0.04444652 0.07699804 0.27169612 0.2523959 0.6920708 -0.53812444 0.42285976 0.061616905 0.19848993 -0.03997463 -0.35592484 -0.098568395 0.06875598 -0.02083715 -0.10343324 0.34962997 0.20706768 -0.64763016 0.4916717 0.34387442 -0.10842138 -0.40359446 -0.29469267 -0.05792308 0.7362642 -0.27262294 -0.08846284 0.28121668 0.060088642 -0.57974964 -0.02663485 -0.59575176 0.47084174 -0.049793657 0.47256982 0.057958167 0.47191185 -0.3022257 0.37414786 0.16858675 -0.35314825 0.26489332 0.40443957 -0.25956762 0.28029197 0.15961833 -0.15697053 0.28651866 -0.1254254 0.74204326 0.23484935 -0.24712746 0.22359318 0.3161771 0.3766853 -0.005903149 -0.1293441 -0.38702783 -0.2943276 0.072146416
1185 0.083501995 -0.37197778 0.93737864 -0.29769078 0.46593744 0.18632418 -0.13459697 -0.52490824 -0.41644153 0.437945 0.7574574 -0.2530659 -0.74381894 0.17558481 0.055053774 -0.74383944 0.24851626 -0.23142901 -0.052075904 -0.05502823 0.23539801 0.21084988 -0.51754016 0.27454135 -0.10805476 -0.30552018 -0.20823151 0.046256576 0.48494428 0.21916342 -0.14219892 -0.481832 -0.7810686 0.06153275 0.14530899 0.0026368292 0.026309796 0.3347996 -0.50566417 -0.47045743 0.5876152 -0.35713235 -0.14586477 -0.40872374 -0.4534866 -0.020996487 0.58416206 -0.17238131 -0.29331726 -0.24725187 -0.2125373 0.174329 0.45488337 0.32430488 -0.51436836 -0.12932402 0.22852752 -0.24713385 -0.10829987 0.33386672 -0.11393924 -0.12989649 -0.2836615 0.63475394 0.20561041 0.81024575 -0.83490825 -0.37267017 0.17376657 0.06820008 0.22688703 0.19285326 0.64436007 -0.49173397 0.41584983 0.21832336 0.109990805 -0.05995331 -0.29718223 -0.03796197 -0.114783734 -0.15849549 -0.07352081 0.26710865 0.16077554 -0.63082993 0.50325984 0.27351263 -0.19224282 -0.32701823 -0.26508474 0.07526172 0.5762431 -0.18467045 -0.09717314 0.3016468 -0.043488637 -0.48835084 0.0064536273 -0.64820653 0.35866565 -0.07166337 0.3223246 0.088265754 0.38582072 -0.2573162 0.316165 0.18851484 -0.37192345 0.29942212 0.24802834 0.0051851203 0.38565117 0.019231329 -0.23865812 0.11037405 -0.06362622 0.585152 0.22995433 -0.08668264 0.058053825 0.44187775 0.33970416 -0.020572256 -0.17110007 -0.39028704 -0.40819812 -0.03770151
892 0.18474509 -0.3668781 0.5641544 -0.036032096 0.66985834 0.02033665 0.5272648 -0.62379277 -0.28207654 0.74686515 0.043951947 -0.084571235 0.15507284 -0.17932679 0.1336565 -0.5087695 0.23730715 -0.7544718 -0.32614806 0.4462371 0.13656224 0.33955443 0.041188914 -0.40837654 -0.5689199 -0.24333258 -0.054620612 -0.07513086 -0.5551777 0.0034694849 0.21751554 0.1307167 0.06006829 -0.16497432 0.33251804 -0.6970625 -0.31243166 0.24411522 -0.8586284 -0.26721132 0.14723225 -0.25445482 0.9131361 -0.5560892 0.17464165 0.13652746 -0.050842933 -0.2941663 -0.43759924 0.18904467 -0.57984626 0.40264085 0.058513187 -0.08675648 -0.22896105 -0.025685828 0.30022943 0.14296369 -0.28765795 0.37751874 -0.017771851 0.039763696 -0.037032872 -0.21499856 -0.119141236 0.46633685 -0.7306229 -0.32674837 -0.46361637 0.06814408 -0.48752442 0.000435283 -0.17683476 -0.22509496 0.85135114 0.10212636 -0.3250977 -0.36176765 -0.47034866 -0.07786886 -0.197596 0.1982601 -0.028338507 0.26276773 0.3108079 -0.1903882 0.44936132 0.069788866 0.2996382 0.65249074 -0.09603808 0.11983326 0.30684033 0.3363533 0.12946218 -0.06588042 -0.21868892 -0.52874696 -0.24837467 0.018339172 0.079271816 0.3462536 0.19075313 0.044537842 0.13726607 0.08987835 0.07272566 0.028221605 0.393163 0.13886306 0.082708724 0.74897105 0.48863927 0.17055325 0.19618751 0.25778311 -0.10413464 0.47468272 -0.1732531 -0.37378237 0.43092045 0.006015657 0.4460288 0.2480256 -0.26940322 -0.31121993 0.3909941 0.018576307
37 0.023803085 -0.28298384 0.49536255 -0.4660709 0.9037047 0.050720096 0.058542505 0.08904962 0.08712937 0.014336714 0.08039675 -0.020681875 -0.31403172 -0.7299715 0.12583944 -0.5581559 0.18214463 -0.10759364 -0.18050976 -0.15602894 -0.5966847 0.5945018 -0.013015523 0.05994433 -0.19142514 -0.3186842 -0.026135372 -0.1806662 -0.039136916 -0.56870776 -0.066648215 -0.16320261 -0.60385764 -0.220305 0.1340701 -0.5042463 -0.005769154 -0.897875 -0.35154945 -0.66547275 0.45202133 -0.0438632 0.61235774 -0.6823207 -0.21315846 0.002485867 0.08937359 -0.2012111 -0.075066105 0.044452902 -0.5532543 0.35634717 0.27922466 0.75951344 -0.43762985 -0.15645242 -0.06267601 0.025575139 -0.39255136 0.08509523 -0.58318204 -0.5489701 -0.29757082 0.08356042 -0.42289278 0.51525295 0.18992832 -0.458277 -0.35585424 -0.36635393 0.090739496 0.23975521 0.37366122 -0.19536418 0.42095125 -0.27687433 0.5282118 -0.3144177 0.32184345 -0.106529914 -0.1559719 -0.37539274 -0.125644 -0.40466145 0.3854052 -0.2605288 0.66315997 -0.18754458 0.41109344 0.41135982 0.1873931 -0.15826671 -0.14991926 0.37499136 0.048537597 0.61532754 -0.05496305 -0.9203327 0.08848023 0.161775 -0.12047756 0.041060846 0.18597406 -0.29220673 0.7757329 -0.060301974 0.32373422 0.5622293 -0.08117072 -0.06957378 0.06294458 0.18785568 0.2483619 -0.5625305 -0.15238255 -0.09295854 -0.012828814 0.5199879 0.009495231 -0.7915935 0.1883916 -0.11092657 0.64834017 0.12452139 0.1788192 0.0856246 -0.3549526 0.15599538
1020 -0.111722544 -0.19169629 0.76081896 -0.08265772 0.5403235 -0.27530462 -0.041120168 -0.50343984 -0.16950952 0.29031196 0.2678501 -0.35236913 -0.43150604 -0.26200068 0.5221618 0.30650008 -0.45288044 -0.51575714 -0.06059473 -0.02073508 -0.88015944 0.13358933 -0.5350089 -0.2146779 0.12142833 -0.12525865 0.021767637 -0.3218969 0.44047654 -0.67818284 0.1350416 0.38954484 -0.8091321 -0.13133192 0.49990922 -0.2590575 0.44279528 0.5079408 -0.6163326 -0.2743982 0.19777592 0.035000544 0.14596406 -1.0019855 0.14823855 -0.3242467 -0.007980622 -0.26152435 -0.18731971 -0.1213622 0.051465563 0.6051085 0.094161615 0.22849628 -0.32047066 -0.51677716 -0.23855874 -0.2568493 -0.09472814 0.081787534 0.45044988 0.16469337 0.036647033 -0.4265028 -0.5715003 0.46004808 -0.27357122 -0.43068838 0.7652154 0.08181701 -0.056608792 0.104466006 0.22792342 -0.07021401 0.40711662 0.041728415 0.4912141 -0.2095572 0.3905829 -0.021358173 0.16522095 -0.19102684 -0.16783583 0.24700868 0.043828912 -0.3149118 -0.13344975 -0.28938738 0.49720705 -0.054736327 -0.4150348 -0.102352515 0.5365009 -0.15679985 -0.15009665 -0.007423709 0.0753069 -0.3549594 -0.17711903 -0.08627719 -0.33132797 0.13190517 -0.20387131 -0.3492809 0.28893018 0.20295292 0.30525896 0.59217775 -0.090498775 -0.27776062 -0.29663736 -0.073461354 -0.056751437 0.058737446 0.25322866 0.23966028 0.2842479 0.94412065 -0.24568054 -0.057176664 0.6043369 0.20002468 0.3412322 0.01298324 0.112878 -0.18889448 -0.21117768 -0.104198344
1187 -0.0071436693 -0.33460516 0.94000417 -0.13980272 0.5829266 0.07856685 -0.048728712 -0.41694385 -0.255651 0.5843914 0.7029909 -0.42373052 -0.61314666 0.13406718 0.18970259 -0.6704948 0.09344032 -0.04680792 -0.011091961 0.17293349 0.22830842 0.3810195 -0.64258766 0.43676543 0.15987909 -0.62400407 -0.14097214 0.007834252 0.56825596 0.1423503 -0.12195182 -0.57438165 -0.9649881 0.04123328 0.23193339 0.08572274 -0.27364022 0.17557414 -0.4674109 -0.56754875 0.49862492 -0.12407779 -0.12917303 -0.2313078 -0.5123706 -0.2404336 0.6765053 -0.21704005 -0.32123357 -0.15025458 -0.2280907 0.2445919 0.38310185 0.64518285 -0.3084668 -0.037702557 0.22380176 -0.34066427 -0.4085593 0.4090633 0.14561518 -0.0015158858 -0.51447326 0.64676154 0.45385978 0.93809575 -0.7015367 -0.5023235 0.29932216 -0.10676041 -0.04543807 -0.07924085 0.5278919 -0.4319087 0.31613335 0.11008472 0.10283719 -0.11304196 -0.15569009 0.30322292 -0.39651686 -0.12643172 -0.17761613 0.23325384 0.22343846 -0.63824254 0.33379054 0.096689865 -0.13649525 -0.0640622 -0.12206139 0.16386758 0.4354143 0.021516673 -0.026344422 0.23027928 0.04387597 -0.47718328 0.04529482 -0.56539065 0.36903468 -0.084439434 0.055643346 -0.0028021855 0.3068636 -0.052308463 0.38684502 0.23104496 -0.40000898 0.12182455 0.08080158 0.18237095 0.47673747 -0.07476687 0.025352597 -0.023291593 0.12703344 0.6821199 0.123886056 -0.05396501 -0.058144685 0.5759153 0.34652203 0.076813094 -0.24847916 -0.34567168 -0.37222487 -0.21209536
103 0.12523831 -0.06179955 0.5288556 0.37228736 0.5535001 -0.4634285 -0.070235066 -0.58025867 0.54104596 0.39218396 -0.058502164 0.15829717 -0.54423195 0.0704708 -0.27292633 0.05022862 0.25662076 0.051799692 -0.24815437 0.18160483 0.39594862 0.7163334 -0.16000839 -0.08483696 -0.32069868 -0.35027215 -0.2156886 0.03675066 0.19753815 -0.19598597 0.14505646 0.20213756 -0.2744381 0.25930756 0.45291504 0.21307701 0.26448914 -0.23841622 -0.05810856 0.21093558 0.17152871 0.4394487 0.22635844 -0.66036546 -0.33729884 -0.67102534 0.16266948 -0.2284918 -0.6767125 0.030967586 -0.21182464 0.19662914 0.49998662 0.501169 -0.4306375 -0.4717131 0.020464227 -0.08662847 -0.65762573 0.3193207 -0.04202247 -0.0769905 -0.10729944 0.12145253 -0.49460822 -0.15939918 -0.6099745 -0.2810038 0.08717355 -0.09717371 0.12777163 -0.13515186 0.8059442 -0.18557082 0.44023508 0.5140118 0.7617417 0.39344478 0.029845119 0.11581535 -0.268371 0.0814828 0.28527364 0.46687412 0.48657525 -0.38680103 0.5233264 0.19785582 0.50535023 -0.24541788 0.28767347 0.14601913 -0.14621504 -0.19945778 0.23948453 0.16933472 -0.27978778 -0.6834507 -0.3174933 -0.11362961 -0.17914811 -0.25604314 0.04149303 -0.42648962 0.20669712 -0.7751766 0.7006292 0.19069222 0.25744745 0.20360535 -0.114778675 0.361944 -0.1388071 0.26205847 0.30530232 0.21275498 -0.03177538 0.22950743 -0.46711108 0.21267839 0.43773302 0.2885888 1.016522 -0.11291497 -0.15264049 -0.081719816 0.3210535 0.2602981
145 0.07423372 -0.3915973 0.3394175 -0.5785754 0.32221934 -0.40676168 0.08262998 0.2507139 0.04860788 0.5976332 -0.117714316 -0.48430046 -0.6342621 -0.18614909 0.3214071 -0.6883035 -0.10894408 -0.13605936 -0.32425705 -0.0040203496 -0.8367745 0.087704055 -0.03735498 0.055841006 -0.21183544 -0.30721128 -0.0030898347 -0.1544339 -0.015065952 -0.693609 0.48799545 -0.077839665 -0.38537097 0.01808936 -0.022672426 -0.34675813 0.12627293 -0.23100205 -0.16645324 -0.6946865 0.19074862 -0.087512925 0.17129374 -0.7085035 0.37839797 -0.34291732 -0.13901319 0.024138007 -0.10709198 0.11402883 -0.66546595 0.2326439 0.18746607 0.5666089 0.21032365 -0.02303619 0.11030917 -0.2516354 -0.4187392 -0.24429898 0.019907953 -0.5302603 -0.39920175 0.008524716 -0.55378276 0.09216019 -0.2718769 -0.03314144 -0.5166617 -0.04136641 0.096892685 0.12949675 0.21698418 -0.3148817 0.26786968 -0.50588953 0.77588594 0.06739012 -0.16476426 -0.43435076 -0.14019924 0.004712094 -0.07434355 -0.1262659 0.57206947 0.008156174 0.6050572 0.114457384 0.1858624 -0.0133346515 0.081392996 0.13972543 -0.19705492 0.67848194 -0.16545647 0.76305926 -0.25464922 -0.26273835 0.3611193 0.13372064 0.16062462 0.06270354 0.3282647 -0.5812119 0.3037169 -0.14947408 0.6433231 0.1662307 -0.15595669 -0.79447854 0.32296085 0.21596988 -0.18752737 -0.49334213 0.12894775 -0.095936246 -0.17571272 0.5780842 -0.22025025 -0.6389336 0.11966517 -0.08846658 0.85222673 -0.011451321 -0.47322026 0.007843582 -0.3223143 -0.07426806
87 -0.3563824 -0.28351793 0.5442891 0.21444654 0.14753807 0.21166593 -0.0468364 -0.65249944 0.08788055 -0.0007440245 0.1140057 0.107199624 0.006467584 -0.08332053 -0.039310798 -0.42623568 -0.529673 -0.051897608 -0.6863277 -0.3408231 0.5109356 0.09037523 -0.061790064 -0.5822698 -0.38305804 0.28507316 -0.15599568 -0.31924304 0.13606644 -0.9792196 -0.044709165 -0.2045822 -0.097124256 -0.26778296 0.25890288 0.38288707 -0.06380174 0.07795378 -0.32779482 0.12044646 0.021994289 0.48661676 -0.119861245 -0.41058967 -0.4225825 -0.096768245 -0.07563963 -0.45859298 -0.3984269 0.10423662 -0.2923369 -0.24290349 0.5835826 0.6174788 0.16894813 -0.69622606 -0.08643533 -0.14690085 -0.2287356 -0.0681075 0.06845129 0.27943477 -0.57573754 -0.025320824 -0.51245165 0.6466318 -0.57820505 -0.13992591 -0.41726962 0.0018656519 0.41775164 0.20719366 0.5455745 -0.61504 1.0033526 0.13600071 0.44010952 -0.28076157 0.055518594 -0.22594222 0.13266098 0.035473287 -0.039208967 0.23155506 0.13624664 -0.3231475 0.68193316 -0.22562455 0.24251002 0.8945253 0.018578254 0.074453056 -0.05922345 -0.26610085 0.11638229 0.045710117 0.08050066 -0.365493 -0.18644378 -0.06908415 0.36221102 0.052427787 0.19141817 0.28240827 0.73201567 -0.037183907 0.3354067 -0.20018269 -0.15828305 -0.5099732 -0.046248376 0.1712231 0.08958633 0.42329803 -0.36683613 0.5426157 0.16391435 0.75847524 -0.29176846 -0.049705833 0.7606755 0.077692375 -0.2859585 0.01982054 0.13664952 -0.3131504 -0.17146368 -0.33692256
851 0.38390708 0.23999429 0.39583355 -0.2952193 0.3449047 0.09688389 0.54928946 -0.017164359 -0.03581882 0.61921024 0.51123524 0.05985962 -0.091581 0.21562916 0.1547143 -0.49199736 0.29034114 -0.3146059 -0.2545053 0.022815948 -0.38555747 0.18715192 0.1517068 -0.2826542 -0.23191433 -0.1554359 -0.34593096 -0.18216164 -0.53822875 -0.26765633 0.02388478 -0.23847376 -0.15750071 0.029314209 0.4511812 0.14033242 -0.3510942 -0.42369723 -0.8452185 -0.3795757 0.6869386 -0.49482614 0.4343975 -0.57524043 -0.32115588 -0.1974783 0.25877666 -0.17887616 -0.2226148 0.3999229 -0.4478586 0.43317866 -0.16624613 0.48628572 0.54667795 0.037865113 -0.067389876 0.30082536 -0.19382758 -0.16108835 0.4801958 0.5656015 -0.02671673 -0.0041330354 -0.025080044 0.36950418 -0.21443717 -0.47094324 0.087575816 0.010666737 0.37680805 0.064827845 -0.6279819 -0.34646514 0.8959802 0.19383255 -0.13614976 0.28231928 -0.20703304 -0.23163475 -0.05591406 0.3076054 -0.24200962 0.3648392 0.2760119 -0.70462495 -0.03574585 0.09153883 0.36588502 0.4403892 0.11856614 -0.039871406 -0.009981883 0.124166094 0.2574318 0.36417174 -0.13169484 -0.42433771 0.39285833 -0.21891733 0.4795858 -0.22024247 0.2892335 0.12131273 -0.24806969 -0.2929226 -0.032943007 -0.07709384 0.19630855 -0.078661524 0.2332742 -0.1647137 -0.26103422 0.50003755 0.69099885 0.41412628 0.5353198 0.7632967 -0.3541526 -0.29477543 0.52146804 0.057507206 0.05029457 0.10080937 -0.38462028 -0.47075075 -0.2201461 0.08285082
548 -0.0846604 -0.86252755 -0.038360957 0.49238768 0.26409402 -0.11200645 0.18817018 -0.45867398 0.091085024 0.2436569 0.027808165 0.0371226 -0.13687319 -0.31168893 -0.13648866 -0.03830222 0.39336058 -0.27517593 -0.44297856 -0.43549955 -0.1597951 0.030850122 -0.90186954 -0.5227446 0.34970903 -0.59583783 -0.5524387 -0.23168746 0.09648405 -0.30857685 0.0030652576 -0.15964247 -0.5452027 0.15456456 -0.24217086 0.2442534 -0.19420774 -0.21750657 -0.6581347 -0.25715554 0.8250023 0.3517427 0.4121927 -0.45992738 0.068912484 -0.39998475 0.099310085 -0.3718296 0.10111098 0.05095727 -0.3829201 -0.32224572 0.3993186 0.32536957 0.26746818 -0.3409407 0.17505994 -0.14897975 0.013490556 -0.07646575 0.0067968513 0.5089613 -0.03399033 0.03282988 -0.7007736 0.37234247 -0.2914993 -0.30472875 -0.37489447 -0.14545202 0.55183285 0.09605845 -0.31077704 0.2938272 0.17475547 -0.05298244 0.61317164 0.14594206 -0.894734 0.3017912 -0.5271148 -0.1507082 0.031064885 0.22455604 -0.13245565 -0.17899214 0.28224516 -0.26706693 0.05347648 0.12415059 0.6379857 0.33793604 0.24620005 0.16728151 -0.089664735 0.17146522 0.0365665 -0.31021047 -0.07166977 -0.28470004 0.004602663 -0.29431763 -0.013190415 -0.24911234 0.040323846 -0.086503044 0.22390586 0.13938022 -0.13545844 0.055995725 -0.10293319 0.19909057 0.11183894 0.17265688 -0.21161267 0.033091508 -0.07726606 0.6153546 -0.3174955 -0.72179234 0.4213264 0.19772264 0.8050758 -0.2930939 0.049020667 -0.6002757 -0.17590334 0.027395455
52 -0.46654618 -0.3489403 0.61230063 0.017964501 -0.017721595 -0.02161186 0.23161812 -0.6353499 0.14281039 0.25243133 0.022437692 0.26908287 -0.00025435304 -0.089685954 -0.023431323 -0.50951505 -0.5038099 -0.10479926 -0.77577317 -0.27102923 0.5043537 0.038185596 -0.07177421 -0.62755764 -0.29158893 0.29522973 -0.21275514 -0.15350495 0.22860602 -0.93212223 0.052142296 -0.07976249 -0.15434882 -0.26018372 0.27139282 0.2346756 0.03405225 0.015981175 -0.34873873 0.086106576 -0.009633864 0.59945935 -0.27664277 -0.53392786 -0.29220378 -0.0113563035 -0.04001022 -0.3671656 -0.3835938 -0.025498526 -0.45716307 -0.39518037 0.6966514 0.51397014 0.122636154 -0.7063204 0.03832559 -0.2813833 -0.30758488 -0.16999939 0.29474664 0.24526568 -0.48031905 -0.122072205 -0.49877754 0.5536232 -0.4571512 -0.27974355 -0.28952903 0.14656563 0.41503215 0.0613603 0.43183842 -0.60311514 1.0896404 0.04267895 0.5010523 -0.26247922 -0.013391183 -0.33590254 0.13231444 0.023607068 -0.06069478 0.07176823 0.21131861 -0.31465226 0.7128087 -0.17518108 0.22753252 0.8053527 -0.007131845 0.17459941 -0.13018973 -0.22449264 -0.1532601 0.13412872 0.051825266 -0.24050918 -0.0386926 -0.04178651 0.4159672 0.26109138 0.19196516 0.44238025 0.75102067 -0.15488556 0.4893159 -0.16517676 -0.1695143 -0.3912963 -0.17429677 0.09345799 0.09335926 0.3608605 -0.32469162 0.6821689 0.04794323 0.9024164 -0.22787881 -0.16434844 0.8244813 0.112038866 -0.32919657 -0.23351806 0.05983719 -0.34095 -0.1588315 -0.25888228
562 -0.0927235 -0.30041227 0.8814211 -0.19569671 0.5895792 -0.27109575 0.016379539 -0.06598054 0.2675883 0.78417283 0.10894443 -0.005844908 -0.677271 -0.12550034 0.5189204 -0.25173658 -0.22251742 -0.37545073 -0.4136988 0.09151424 0.041591626 -0.053652238 0.1340447 -0.58463 -0.06716082 -0.057397656 -0.27225682 0.21736656 0.006050797 -0.51254916 -0.19736072 -0.18425511 -0.40331995 -0.06932118 0.07366936 -0.33084175 0.10883524 0.023229845 -0.18764086 0.09826978 0.6009786 0.35464606 -0.30233127 -0.19253594 0.3199236 -0.21205506 -0.007888925 -0.57174283 -0.4118284 0.16102052 -0.59571093 0.46761483 0.15880841 0.22179599 -0.32766876 -0.15150023 0.41007516 -0.086097635 -0.47738555 -0.3920057 -0.090769276 0.69036126 -0.44230732 -0.005573332 -0.046649348 -0.08777168 0.2981154 -0.40865293 0.25587308 -0.108715 0.10496963 0.5133478 0.6021658 -0.22734503 -0.05307509 0.5512052 0.7279861 -0.4580188 -0.015993228 -0.48631284 -0.28797972 0.5553291 0.561448 -0.022120273 0.055759355 -0.18610182 0.48901546 -0.21106583 0.15840974 -0.024790404 0.2554772 0.23147075 0.75178474 -0.073444836 0.53444886 0.1383158 0.43623894 -0.3280333 -0.26145813 -0.27015802 -0.2406815 -0.2629988 0.4539996 -0.16439618 -0.08206331 -0.39160767 0.42112553 -0.16361049 -0.14286578 0.5950563 0.018751211 0.05965422 -0.15674137 0.29090816 -0.07089345 -0.1768502 0.50092757 0.21821284 0.122610904 -0.7148606 0.51453567 0.11934357 -0.12450355 0.19616967 0.06993503 -0.7217314 -0.38545793 0.31492284
1176 0.112679675 -1.0223987 0.6568865 0.14141789 0.11902607 -0.27624768 -0.3386177 -0.50017166 0.27939755 0.33183476 0.479392 -0.40328065 0.08634969 -0.25055516 0.016840098 -0.33632192 0.014317542 -0.3544742 -0.5534245 0.16819954 0.028866222 0.20682268 -0.07807189 0.19042958 0.43842617 -0.08934632 -0.30406407 0.22951826 0.36861488 -0.48167375 0.030919349 0.31503844 -0.5072641 0.2667482 -0.019763721 -0.35439444 0.44094995 -0.40606108 -0.19507013 -0.37804627 0.49667442 -0.39660925 -0.53854936 -0.42195573 -0.27274206 0.10039107 0.1805061 0.36976326 -0.24634477 -0.3812536 -0.17104787 0.35913357 0.25711247 0.77878356 0.24553722 -0.2562913 -0.009669816 -0.15822786 -0.49117953 -0.5741013 -0.5762861 -0.018161071 0.065430544 -0.54001254 0.111897685 0.2746561 0.0724898 -0.2964854 -0.08390559 -0.093473986 -0.056301575 0.315974 0.1704632 -0.19393966 0.74552584 0.33148295 0.39147058 -0.25551346 0.17585 -0.026534775 -0.46513003 0.44376397 0.1406683 0.1854988 0.37918228 -0.47825453 0.5952562 -0.045273274 0.16906783 0.46380788 0.023348216 0.11426988 0.14964987 0.14603089 -0.30627608 0.12466417 0.31123936 0.2327167 0.19805026 -0.19419253 0.3259917 -0.09173722 -0.39453465 0.090644926 0.11013416 0.4690877 0.22475769 0.32658198 -0.15079382 0.5253975 0.7273488 0.32618687 0.09255209 0.095197834 0.23166968 0.2830239 -0.2471224 0.82800746 0.31454238 -0.80449516 0.3997266 0.16754594 0.37605554 -0.24529278 -0.42501137 -0.88280123 0.014797141 0.07929841
1009 -0.06295448 -0.10719509 0.8321085 -0.14344296 0.2737615 -0.11847648 -0.12457217 -0.6985486 -0.3215668 -0.017374467 0.41165367 -0.068913825 -0.7642292 0.2417204 0.03285287 0.021743642 0.00010485761 -0.4032629 -0.28472057 -0.29106027 -0.02776927 0.13276811 0.056806866 -0.03203945 -0.34649178 -0.54536283 -0.09450527 -0.32252863 0.20413572 -0.11088975 -0.01714571 -0.13897751 -0.30058688 -0.12130919 -0.13927716 -0.41367322 0.42962334 0.3282762 -0.58055025 -0.7583484 0.6609703 -0.2455426 -0.094367966 -1.1604037 -0.2147537 0.0746423 0.24829313 -0.55747104 -0.3186263 0.05847462 -0.011120498 -0.033793055 0.3379643 0.041089863 0.016484775 -0.24558832 -0.118202664 0.095190614 -0.18273349 0.24791718 0.22473872 -0.32020026 -0.108626865 0.33418098 -0.41439298 0.27902877 -0.2860846 -0.057772055 -0.12594636 0.14806703 0.49537662 0.48560733 0.27385095 -0.29549485 0.94123787 0.4696721 0.32683635 -0.33578303 -0.58113223 -0.28660998 -0.115394354 -0.09337257 0.49677926 0.10096808 0.18160197 -0.35835892 0.46566087 0.27350694 -0.6094033 -0.18406507 -0.3827456 -0.1175262 0.06712655 0.4311975 0.118768685 0.49950498 -0.6150286 -0.2413539 0.33201122 -0.2809709 -0.11689091 -0.24377312 0.39092723 0.050284952 0.04109048 -0.6748983 -0.10892176 -0.07406679 -0.04757235 0.20199065 0.12606536 0.35806087 0.1192195 -0.093163095 -0.35445467 0.44113606 0.18810755 0.31366268 0.4641483 0.0032037226 -0.09829867 0.6487819 -0.019966405 -0.20895623 -0.058068328 -0.38738015 -0.18071891 -0.17148446
1036 0.14808065 -0.5086039 0.7429942 0.23762983 0.7036036 -0.17087281 -0.10394201 -1.1081015 0.08344739 0.0690203 0.08621989 -0.23725946 0.47119167 -0.3971079 -0.21247844 -0.5651186 0.06506294 -0.506449 -0.3909679 0.15263458 0.20530856 0.21493286 0.23496631 -0.015904013 0.009469283 -0.14014216 -0.026833013 0.15661599 0.0027300464 -0.34095788 0.02561155 0.4150765 -0.7005079 0.13680871 0.29418635 -0.38317823 0.70390284 -0.04991675 -0.19976063 -0.011652237 0.31496555 -0.05456421 0.10497242 -0.3586981 0.069782786 -0.11412631 0.034136128 0.1122688 -0.56836486 -0.25221393 0.015164919 0.18868145 0.052893646 0.33339992 -0.026283078 -0.13286611 -0.054534905 0.13039656 -0.16705523 -0.40233007 -0.19864573 -0.19146377 0.55980605 -0.16352221 0.2057555 -0.13926753 -0.692661 -0.7528954 -0.5367235 -0.21577245 0.16871153 0.33427426 0.075792626 0.014095404 0.7228986 0.0963806 0.4423878 -0.09692932 0.039675202 -0.22418684 -0.5445869 0.3812488 0.46476206 -0.30120024 0.14555937 -0.6136091 0.5975581 0.12641175 0.16257757 0.41496846 0.19936481 0.4192949 0.689945 0.060209617 -0.14748734 -0.17861551 -0.10634588 -0.07691327 0.09904292 -0.097719625 -0.004618204 -0.08295105 0.12756221 -0.24701892 0.18195324 0.6064178 0.18384735 0.39714622 -0.1791119 0.16095401 0.042165294 0.50777686 0.24166457 0.21045303 0.28941894 -0.06969091 -0.41384262 0.91564196 0.43960914 -0.61088645 0.17950465 0.38370278 0.31424373 0.118511975 -0.22879043 -0.5319851 -0.106042385 -0.01147494
1186 0.038302332 -0.42572716 0.97232836 -0.18313643 0.42075318 0.19615792 -0.078871585 -0.50423914 -0.36513647 0.45427704 0.73329526 -0.3690117 -0.6649309 0.14739354 0.11905352 -0.7395462 0.1341937 -0.16786759 -0.000490974 0.08868035 0.24077192 0.29116994 -0.6016401 0.2879177 -0.01700703 -0.4355716 -0.14467676 0.08748615 0.5469954 0.16686109 -0.17887512 -0.55715346 -0.8513468 0.050288018 0.09697787 0.042503268 -0.12745638 0.27776784 -0.47539288 -0.5090059 0.5476234 -0.20698938 -0.13087256 -0.28734556 -0.45445114 -0.04839088 0.61471754 -0.22653532 -0.30845383 -0.21739449 -0.21558659 0.20316675 0.4413926 0.46336502 -0.4196252 -0.05040278 0.22713578 -0.24396904 -0.22171183 0.3739773 0.0141096935 -0.08078298 -0.45736685 0.65619713 0.36420745 0.8188221 -0.77396154 -0.44356295 0.22905435 0.00651591 0.13760197 0.11695136 0.57359374 -0.47944814 0.41338986 0.28575853 0.08427306 -0.08991133 -0.26756984 0.076960266 -0.25912574 -0.22717303 -0.0363004 0.2736939 0.17175888 -0.597668 0.48445314 0.1824461 -0.104610905 -0.19982293 -0.24385971 0.17818834 0.46878603 -0.13819768 -0.13359915 0.22589831 0.017347971 -0.43384242 0.048200414 -0.6251559 0.3085882 -0.1000473 0.17700209 0.05750348 0.37825298 -0.1663129 0.3648143 0.19955336 -0.41554675 0.26299825 0.2330627 0.11986642 0.40724087 -0.045025397 -0.12815554 0.038501013 0.06810288 0.6126154 0.17286429 -0.0487116 -0.020394674 0.53149325 0.33175766 0.021304488 -0.22486272 -0.3869362 -0.45052785 -0.12804179
142 0.046361633 -0.28799054 0.10488933 -0.5653069 0.5376392 -0.0019626126 0.049664438 -0.16564073 0.010508335 0.39544126 -0.1275911 -0.18319678 -0.45158517 -0.43811256 0.12251181 -0.51816386 0.2684137 0.19216801 -0.36170664 0.24654979 -0.8208552 0.6035333 -0.091218986 -0.16094053 -0.029882502 -0.07756813 0.152684 -0.428714 -0.42729908 -0.59709907 0.2708265 -0.18041947 -0.23907131 -0.20631821 0.067573346 -0.28417188 -0.089928724 -0.66012 -0.14266795 -0.69740134 0.24504101 0.001209617 0.1739634 -0.92826355 0.084124856 -0.074707545 -0.24943332 0.12976159 -0.17631406 0.09912922 -0.7207066 0.3013909 0.4130603 0.65389717 -0.027614076 -0.014460925 -0.3666438 -0.35352162 -0.31276065 -0.3137881 -0.18116875 -0.68258035 -0.32028973 0.089178674 -0.53063 0.2697853 -0.25252882 -0.4401251 -0.535569 -0.21946992 0.017989127 0.4687564 0.10657943 -0.40549743 0.13398065 -0.43846563 0.6952393 -0.16155264 0.26924327 -0.2549025 -0.39038858 -0.58795345 0.002297485 -0.21541965 0.48519063 -0.38134488 0.6876109 -0.43068212 0.38282117 0.22945641 0.23433799 -0.12581925 -0.08220814 0.62916934 0.46284953 0.47599816 0.025149953 -0.41714883 0.19482492 0.020689106 -0.00023720853 0.07692623 0.42853886 -0.07541049 0.6343738 -0.38314775 0.3002223 0.32574275 -0.028037112 -0.32359 0.13117194 0.17580897 -0.059466757 -0.44489267 0.22447762 -0.10190598 -0.094012626 0.522082 0.10832111 -0.7932734 0.27879465 0.19768542 0.69076824 0.053484116 0.087168984 -0.10700305 -0.40957344 0.16169505
84 -0.32143468 -0.7700361 0.8070278 0.19208285 0.42648542 0.34785396 0.0071339426 -0.6692812 -0.04300876 -0.022804147 -0.043735698 0.30120227 0.13416293 -0.076131225 0.110231236 -0.04485501 -0.38542473 0.14103167 -0.62611866 -0.21629664 0.4957468 0.15196742 -0.25004843 -0.4462705 -0.1493787 -0.120093964 -0.12525225 -0.25210246 -0.28672236 -0.94889116 -0.22870189 -0.1887638 -0.485925 -0.30170053 0.15411901 0.36358923 -0.001032144 0.29059702 -0.055670813 -0.0065338174 -0.019962162 0.3532779 0.0063446388 -0.4869479 -0.4946488 -0.2098124 0.2570771 -0.21170983 -0.7635748 0.253418 0.36941737 0.23335017 0.2203096 0.43610826 -0.053904302 -0.87919366 -0.1080174 -0.11808626 -0.5800815 -0.122330196 0.16941853 0.04032232 -0.34485757 0.0030977447 -0.41196632 0.68383914 -0.57516986 -0.14812379 -0.14346988 -0.19411238 0.117422774 0.17438197 0.13953376 -0.5421068 0.68982697 0.35122153 0.15337601 -0.40179276 -0.14469038 -0.3014529 0.17956313 0.033350874 -0.17852698 0.18767841 -0.14460388 -0.6203607 0.5421984 -0.10760514 0.37901887 0.5060568 0.30655476 -0.049262397 0.15933211 -0.10326447 0.12749399 0.010399408 0.29507345 -0.70218885 0.030907342 0.2551758 0.02136566 -0.3469796 -0.01925427 0.41970265 0.5712453 -0.13881485 0.42036188 -0.051976014 -0.18886095 -0.3346624 0.17743756 0.50361717 0.31042343 0.49102774 -0.2292123 0.5288361 0.07500117 0.47910148 -0.52348286 -0.0741908 0.44313303 -0.11441612 -0.3783026 -0.13858819 0.23203494 -0.57964784 -0.50620717 -0.33439255
1008 0.026722465 -0.14407761 0.8530205 -0.1543533 0.5531452 -0.08123803 -0.16427313 -0.78857255 -0.3611965 -0.07089821 0.38903132 0.12343678 -0.6794126 0.098932646 -0.09033928 -0.024437817 0.08773392 -0.36783797 -0.37242475 -0.36120936 -0.006241079 -0.016964452 0.29939422 -0.03468039 -0.36552426 -0.45451537 -0.22249275 -0.35058448 0.113959625 -0.050274547 -0.055842105 -0.0951814 -0.3297363 -0.022818895 0.023492305 -0.5295522 0.7404408 0.30732748 -0.54132015 -0.70500135 0.6671769 -0.18667229 -0.0881963 -1.1389066 -0.101034254 0.0787737 0.1872905 -0.4187981 -0.3744963 -0.110521816 0.076505356 -0.024401464 0.27352157 0.10440856 -0.079357624 -0.28162178 -0.17364933 0.09801507 -0.19346108 0.06353659 0.1279929 -0.17851338 0.08292383 0.26407063 -0.32941598 0.079393834 -0.33039504 -0.12130543 -0.3520258 0.24640732 0.42379713 0.64577603 0.24677446 -0.22279127 0.908542 0.27763838 0.39362326 -0.27935708 -0.5205835 -0.35021114 -0.056071658 0.18043332 0.45294622 0.03361856 0.012489365 -0.45612326 0.5549422 0.26660922 -0.53154814 -0.14894208 -0.40246186 -0.22326128 0.2571116 0.39563107 0.19015858 0.5547027 -0.71632415 -0.091287054 0.37367225 -0.27844742 0.014206778 -0.23643222 0.5458509 -0.12322029 0.013265574 -0.5205757 -0.09917555 -0.06437554 -0.036302824 0.09768494 0.079117864 0.42267844 0.16425239 0.01498494 -0.32754117 0.46559379 0.028657205 0.30067673 0.48067608 -0.008681821 -0.06065666 0.5374725 -0.07759254 -0.2515094 -0.09877556 -0.46962956 -0.20998445 -0.14709155
834 -0.12608758 0.48581684 0.6350131 0.15766439 0.21719831 -0.36482605 -0.31826258 -0.27102822 -0.00019044045 -0.09058578 0.30522248 -0.4027575 -0.2651413 -0.29311544 0.2263418 -0.16026258 -0.06610308 -0.3159713 0.013958352 0.250946 -0.08077989 -0.029940492 0.22150032 -0.010820805 0.03329475 -0.8429973 -0.1113025 -0.3074642 0.43101212 -0.33814555 -0.025395863 -0.3423982 -0.53783834 0.25080797 -0.21827091 -0.2925789 0.29785937 0.26974332 -0.58105165 0.056920238 0.2445865 -0.24054477 0.14844546 -0.61116284 -0.08141449 -0.102149226 0.3996185 -0.14131138 -0.7313781 0.043410823 -0.19409652 0.050287433 0.33631176 0.4274521 0.4112235 -0.51783776 -0.14258946 -0.06025372 -0.5533574 0.04717584 0.7013256 -0.18390335 0.112763464 -0.1360865 -0.19430047 0.14755711 -0.027495572 -0.058068268 -0.09402927 0.7668416 0.2304686 0.29347062 0.19704168 -0.4873959 1.2271551 0.1848568 0.31246108 -0.7289834 -0.4169113 -0.14780635 0.088852674 0.20861025 0.37498242 -0.26527292 0.5696775 -0.35823983 0.3586301 -0.095069066 -0.6645501 0.35925367 0.24672554 0.04623556 -0.0015325901 0.016254833 0.33411452 0.5424485 -0.24788898 -0.14036871 0.20054553 -0.51970935 0.12912941 0.0485963 -0.287452 -0.30130154 -0.17215571 -0.14516611 0.1633399 0.009041237 0.13809453 -0.09321584 -0.5471842 0.40891922 0.036041696 -0.058232863 -0.140621 0.012283284 0.28022316 -0.02123169 -0.15303071 -0.19727822 0.30842322 0.07552467 0.19130918 -0.15276784 -0.46970457 -0.7667046 -0.036553424 0.12112461
42 0.020159509 -0.6375385 0.48675266 -0.5062598 0.7929727 -0.14754327 0.32382604 0.35300976 0.17005897 0.18562059 -0.11121926 -0.18680213 -0.53235763 -0.29434523 0.61793274 -0.6312806 -0.094038606 -0.24971268 -0.06887082 0.08164161 -0.4861741 -0.17533092 0.13124584 -0.002868789 -0.11242238 -0.31368333 -0.5837367 0.03494251 -0.1630275 -0.6726435 0.13156 0.2548818 -0.49542084 0.20181121 0.07213826 -0.065754205 0.26870078 -0.17478433 -0.12043429 -0.6154383 -0.048681986 0.10451342 0.47982392 -0.41336563 -0.032007374 -0.23637153 0.45793754 0.13882734 -0.20403293 0.12988004 -0.1706009 0.42442936 0.0018748896 0.543402 -0.004046219 -0.45602232 0.5425676 -0.19674374 -0.73572105 -0.29862744 -0.12702338 -0.17019635 -0.4871339 0.2989478 -0.5003718 0.33716902 -0.40279782 0.02449371 -0.107179835 -0.06650279 0.39479533 0.018896054 0.39512852 -0.34255698 0.60454553 -0.015384693 0.1796415 -0.1730646 -0.5253248 -0.14895916 0.27983937 0.27366078 -0.34811002 0.17193846 0.3421426 -0.17581245 0.58878744 0.1982101 0.0036652137 -0.049255937 0.26941222 0.21759684 0.056075707 0.4791872 -0.46213168 0.6256272 -0.036608428 -0.94551027 0.3435771 0.1051815 -0.11045542 -0.31455952 -0.025821986 -0.2579019 0.4891609 0.012246646 0.8926176 0.13090876 -0.08095225 -0.5006176 0.54503155 0.54905176 -0.06033209 -0.31803483 -0.30561444 -0.04451379 -0.36653075 0.31433773 -0.40563083 -0.43876377 -0.03255962 -0.4526838 0.6530459 0.32089224 -0.16578321 -0.2844576 -0.023220045 -0.09715285
1148 0.28364253 -0.48447266 0.7481117 -0.4315491 0.40764737 0.0024803493 -0.22774473 -0.43142465 -0.3427658 0.37411088 0.6070038 -0.03938414 -0.53035605 0.17334083 -0.044987217 -0.41980505 0.41875574 -0.18872356 -0.29763564 -0.5468436 0.11388282 -0.0102086635 -0.20400706 0.17391476 -0.116035655 0.055462804 -0.32743296 -0.06341771 0.27476978 0.17775376 -0.05738813 -0.19544435 -0.6334799 0.07032554 0.15133242 -0.14054915 0.4428076 0.23907639 -0.49383315 -0.30716592 0.6985349 -0.59464693 -0.14341125 -0.71316206 -0.32775602 -0.06767094 0.42551067 -0.11951464 -0.20484385 -0.15599488 -0.0691142 0.16914909 0.34694946 -0.086245365 -0.52703154 -0.3048791 0.17989664 -0.44214866 0.0259733 0.17884237 -0.29625052 -0.18487653 0.12716134 0.40285274 -0.2122815 0.62725675 -0.6865567 -0.05100451 -0.12597738 0.10007984 0.26340544 0.39251044 0.7092935 -0.29948366 0.5610138 -0.074679345 0.22262047 -0.018828021 -0.21520019 -0.19917619 0.07838488 0.07515577 -0.09126676 0.2878457 0.16984919 -0.71439177 0.53816015 0.41328904 -0.30687046 -0.37575564 -0.23469214 -0.115452625 0.683637 -0.11044245 -0.010498454 0.51469946 -0.014765076 -0.38737476 -0.010898614 -0.53638935 0.5821904 -0.15855195 0.69394517 0.21219394 0.45449495 -0.47750297 0.28177014 0.10005571 -0.17995164 0.114960864 0.39447492 -0.25056598 0.2736517 0.20812896 -0.19856644 0.34994233 -0.18167566 0.72187996 0.3872268 -0.36899918 0.15354154 0.32434973 0.3059352 -0.025110388 -0.07467657 -0.46338227 -0.23583254 0.09168196
1038 0.1550445 -0.4736323 0.7284903 0.094285786 0.9741479 -0.02164574 -0.05812497 -1.2088019 -0.12047284 -0.23636524 0.2484483 0.105937794 0.01440254 -0.24457642 -0.35340214 -0.38073015 0.12072673 -0.35838038 -0.5382851 -0.042011082 0.11114677 0.11389004 0.4187948 0.13562518 0.1461588 -0.19373977 -0.2120122 0.15421885 -0.040018406 -0.3671555 -0.026758704 0.1317849 -0.46934006 0.3875209 0.36357522 -0.36488518 1.0063617 -0.11591681 -0.08295775 -0.08844866 0.43850198 -0.03651442 -0.062461622 -0.55297375 0.17689493 -0.21922456 0.07649448 0.102785304 -0.5866265 -0.45084804 0.122207746 0.15192589 0.09761958 0.3675875 0.02607598 -0.2804612 -0.18407245 0.061420787 -0.22543728 -0.47789273 -0.1600759 0.03344724 0.3670995 -0.092803866 0.17968847 -0.29806498 -0.6264176 -0.75462395 -0.6113105 -0.009555063 0.1885348 0.6709698 0.308201 -0.07921635 0.5881461 -0.32075807 0.5185179 0.08811835 0.20980158 -0.21821849 -0.48056942 0.48978138 0.15063693 -0.32550544 -0.008556608 -0.7069329 0.5036189 0.3092451 0.05864691 0.2551965 0.10924116 0.047371864 0.4676491 0.20239693 0.07233392 0.2741635 -0.3069519 0.0493099 0.21059285 -0.08995594 0.08317046 -0.34570435 0.4375965 -0.17133498 0.078048386 0.38539505 -0.0369002 0.22476125 -0.105039746 -0.17835711 0.120805435 0.33970392 0.19417927 0.27609923 0.061073344 0.14932804 -0.36891007 0.6720491 0.55650103 -0.3993614 0.1128447 0.19489425 0.17476697 0.017875286 -0.042725347 -0.5659613 -0.30671403 0.097893804
1011 -0.056372095 -0.15645342 0.7989847 -0.06896376 0.18566285 -0.0097307535 0.06460617 -0.6961885 -0.2769075 0.048639353 0.26151726 -0.2644371 -0.5574758 0.23842043 0.14931098 0.112078905 -0.018045915 -0.36212063 -0.25646228 -0.24637501 -0.016712334 0.40956342 -0.116898164 0.032718226 0.018355766 -0.57525414 0.177434 -0.24891564 0.33657727 -0.3434063 -0.029900897 -0.08795903 -0.40692103 -0.18950257 -0.3363356 -0.46566442 0.2978831 0.28290573 -0.56945044 -0.52973765 0.655984 -0.100673504 -0.17199758 -1.1713066 -0.094170466 -0.12681712 0.29465184 -0.65883964 -0.3462198 0.32594347 -0.11112349 -0.053937286 0.13105498 0.21522155 0.1821573 -0.20489475 -0.21705312 -0.054572467 -0.24239871 0.25069937 0.27023214 -0.37277582 -0.3368923 0.5054125 -0.3694743 0.39476997 -0.26512203 -0.20585355 0.09157443 0.1648703 0.08576848 0.22568311 0.24900672 -0.15129705 0.9272007 0.36541632 0.15724266 -0.16852598 -0.1927021 0.07158197 -0.5122775 -0.21333219 0.2602725 0.18079618 0.37104434 -0.2999721 0.3973281 0.29893097 -0.67749184 0.06135369 -0.18477108 0.10648706 -0.16160758 0.503676 0.15276535 0.4542115 -0.25924572 -0.27070346 0.25925937 -0.30463427 -0.075817235 -0.4405874 0.34209034 0.36689845 0.18194169 -0.71435684 -0.13781047 -0.0979824 0.010353672 -0.05962772 0.19065273 0.53919995 0.21524045 -0.18880442 -0.17027262 0.29104024 0.6050177 0.5565647 0.39057702 -0.042621795 -0.4074258 0.69067544 0.02588148 0.008311023 0.05262083 -0.3508407 -0.27106875 -0.24190184
799 -0.22262585 0.4852219 0.66321206 0.21223243 0.18786667 -0.34381068 -0.40100282 -0.19431645 0.10893313 -0.026474882 0.27359733 -0.3618878 -0.35396105 -0.4376636 0.28901842 -0.23003621 0.12977652 -0.32250094 0.049035773 0.12795243 -0.12192596 -0.16792977 0.09735466 -0.14248289 0.18764131 -0.81914055 -0.26005656 -0.24449405 0.3327573 -0.16402024 -0.093521245 -0.3405828 -0.6312218 0.39756498 -0.22379036 -0.24594569 0.26433337 0.37520906 -0.6037182 0.08002381 0.24086817 -0.21830173 0.29108846 -0.59362596 -0.110270604 -0.1888598 0.4742449 0.12722516 -0.53551793 0.08360584 -0.39245987 0.026425427 0.43623003 0.43012294 0.3376704 -0.53485954 -0.05980204 -0.1323106 -0.48397747 -0.06309023 0.5362178 -0.10357952 0.16883482 -0.09084097 -0.26973692 0.20868006 -0.06387083 0.16205579 -0.07236826 0.8287949 0.30401656 0.26333705 0.14070903 -0.5260229 1.0690325 0.24184759 0.16891666 -0.68636644 -0.45510134 -0.08009424 0.14332037 0.28167573 0.3157629 -0.24086477 0.56875527 -0.28203368 0.4714257 -0.013427153 -0.6112648 0.31224397 0.34882507 -0.0063868472 0.05140149 -0.1593527 0.32658884 0.4814147 -0.13228793 -0.1056538 0.12724362 -0.5897288 0.23809227 0.20531712 -0.24179605 -0.31411207 -0.12642361 -0.12537591 0.28969553 0.08346144 0.13260444 -0.13412502 -0.43799132 0.3521203 -0.0077094883 0.08150548 -0.15789707 -0.013832536 0.15584229 -0.1748186 -0.2551148 -0.3417892 0.4591189 -0.05547735 0.2519261 -0.2277942 -0.592813 -0.8624818 0.049178187 0.17919078
64 0.26250178 -0.1218705 0.56500506 -0.10693949 0.6139004 -0.31105325 0.07246048 -0.22903426 0.45470685 0.5551876 0.12593137 0.095326 0.057964474 0.021828165 -0.43077353 -0.1439831 0.40507156 -0.15294094 -0.4579063 -0.10828517 0.15351787 0.57292074 -0.2233897 0.019274302 -0.3098453 -0.6465126 -0.51600426 0.19362798 0.13329698 -0.7003583 0.38806862 -0.20672451 -0.3598045 -0.28847784 -0.26302665 0.24347 0.045554556 -0.08289559 -0.15816435 -0.075679 0.0010295168 0.36404228 -0.34923208 -0.810425 0.019696105 -0.13391158 0.014875714 -0.25411004 -0.5329707 0.1777778 -0.38960212 0.71838367 0.16495258 0.63160187 -0.38313097 -0.6799808 -0.025874162 -0.39902297 -0.28175002 0.41818953 0.11115029 -0.018497322 -0.22666937 0.08729621 -0.5994892 -0.18754688 -0.8232512 -0.439686 0.37277165 0.3322348 -0.17137763 0.1806937 0.64677703 -0.2115812 0.6499918 0.07395572 0.29244533 0.28265002 0.3032429 0.32295677 -0.10929878 -0.004078143 0.2689719 0.3796496 0.54099554 0.08809857 0.7931828 0.015432835 0.40654498 -0.23070747 0.30817407 -0.165863 -0.033714652 -0.105710916 0.28300822 0.4616805 0.10887491 -0.71978664 0.21711846 -0.44090036 -0.58061284 -0.13743338 -0.072578624 -0.4673886 0.48787946 -0.13133225 0.6197651 0.19386712 0.4751311 0.24825315 -0.3128861 0.01419171 0.22991148 0.1127502 0.5050763 0.09746769 -0.06387184 0.029662138 -0.083779514 -0.17245798 0.16285764 0.4699393 0.68344486 -0.42973045 -0.38935947 -0.04290152 0.44541094 0.13296427
1152 -0.07384647 -0.33978438 0.9034315 -0.21879846 0.71551144 -0.016671022 0.16154684 -0.41192964 -0.259098 0.6724037 0.46109763 -0.28878272 -0.7097468 0.06481161 0.13621372 -0.42546314 0.13344306 -0.058960978 0.018628089 0.09750017 0.08028715 0.5240192 -0.64371616 0.3909913 0.16622415 -0.73327416 -0.011467482 -0.15011783 0.48536518 0.059849206 -0.0998153 -0.4126111 -0.9180774 -0.02494372 0.17222643 -0.025480568 -0.2796846 0.19293758 -0.46486002 -0.6224636 0.49876156 -0.0011429364 -0.1912257 -0.36919317 -0.41932854 -0.2424221 0.7057624 -0.3314565 -0.19151993 0.12735853 -0.24061091 0.11310047 0.24092199 0.4888661 -0.34115633 0.046571944 0.21122779 -0.2984833 -0.37611535 0.4281253 0.26272592 -0.04435384 -0.61845857 0.8062107 0.27068976 0.96568733 -0.65725976 -0.44457904 0.33860275 -0.15194412 -0.16900563 -0.14540474 0.3782899 -0.32139128 0.3358437 0.04799931 0.08682129 -0.08454344 -0.17361623 0.3502652 -0.56010735 -0.09266582 -0.25325328 0.24419264 0.118436135 -0.51200736 0.305892 0.089901716 -0.35095897 -0.12611143 -0.012307756 0.16675378 0.37272814 0.14265613 0.17036599 0.2907809 0.04897541 -0.58724517 0.12277164 -0.5101272 0.28251496 -0.2218562 0.24590756 -0.032944314 0.33274662 -0.1589838 0.40208519 0.16470428 -0.31780553 -0.004181648 0.002970119 0.2784155 0.41239047 -0.055696268 0.06923949 0.05060622 0.2619887 0.6936524 0.16853182 -0.065830596 -0.26905146 0.70180637 0.2120264 0.24042036 -0.21910813 -0.25164405 -0.35927644 -0.34165058
1113 0.22358848 -0.4536177 0.8017692 -0.41878277 0.40105602 -0.121651135 -0.15325558 -0.49609125 -0.30332848 0.34432343 0.4429494 -0.032889355 -0.6251594 0.17778833 0.037582524 -0.24119096 0.43878785 -0.2241274 -0.41600716 -0.65195304 0.09919474 0.04113694 -0.06823989 0.22408985 -0.14959575 -0.0075892126 -0.2646893 -0.17264122 0.09538263 0.13082427 -0.002713683 -0.07650539 -0.4924182 -0.090043105 0.0640485 -0.32816556 0.48381642 0.27327842 -0.47859266 -0.5843985 0.64686745 -0.4767808 -0.18526644 -0.92466146 -0.35552737 -0.09370804 0.47676528 -0.22916947 -0.17211309 -0.08309445 -0.034887128 0.117142715 0.27750134 -0.06144471 -0.41568387 -0.27739975 0.16039082 -0.4456321 0.04371333 0.1646238 -0.2925387 -0.24034901 0.17937316 0.33953896 -0.2922658 0.63932735 -0.57845443 -0.056490384 -0.18669964 -0.051314037 0.33646291 0.3827477 0.5585039 -0.17192549 0.5613546 0.0030614643 0.19796544 0.045954812 -0.22720519 -0.23303965 0.004541762 0.14118263 -0.023812044 0.2643538 0.10287671 -0.5631218 0.5103594 0.4484647 -0.4795481 -0.32554182 -0.19522028 -0.19727427 0.5809194 0.21310036 0.08842065 0.5313116 -0.17969884 -0.36810204 0.12088943 -0.41498855 0.45061645 -0.21488582 0.7949862 0.31019607 0.3936523 -0.5965571 0.16168247 0.06440044 -0.12920628 0.08846308 0.41711405 -0.09076769 0.26121908 0.16295609 -0.25412476 0.46289364 -0.17184117 0.6818516 0.56642675 -0.35231924 0.044032138 0.49444458 0.21736337 -0.039208688 -0.056650057 -0.37885314 -0.18846856 -0.12939319
1123 -0.25211364 -0.6329445 0.489078 -0.51424736 0.36046967 -0.4391886 -0.14016363 -0.47458014 -0.02009182 0.14249343 0.18943812 -0.29027003 -0.320402 -0.13572228 0.067818955 0.08992607 -0.1471378 -0.6276704 0.17090146 0.05001639 -0.47190475 0.43529618 -0.23245582 -0.14253823 0.41383997 -0.24404667 -0.06666665 -0.09522724 -0.15679833 -0.44360346 0.013892487 0.23508507 -0.47242847 -0.16847876 0.4762757 -0.10213977 0.60957307 0.30281627 -0.57109904 -0.40311658 0.49902174 -0.2572344 0.13445869 -0.8161245 -0.09652592 -0.03548467 -0.1076127 -0.5581614 -0.629842 0.25525787 -0.47304296 0.4680564 0.25208664 0.060959212 0.11568223 -0.78530943 -0.027528387 -0.49569026 -0.10146745 0.009473838 0.23009442 -0.20102397 -0.16413745 -0.7143308 -0.67081404 0.45162857 -0.11771009 -0.7328689 0.5720582 0.30668354 -0.12808752 0.43972576 0.29739326 -0.38885868 0.36640605 -0.434677 0.78891313 0.3638067 0.3426971 -0.24298048 0.0028315717 -0.33422697 -0.1339747 -0.18314995 0.22514583 -0.53065085 0.4774034 -0.04515184 0.47166052 -0.28906387 -0.42099455 0.030416086 0.48516873 0.1860335 -0.2349895 -0.20293212 -0.33600682 -0.3508468 -0.20525418 -0.4651431 -0.3004129 0.13481618 -0.3420004 -0.42015547 0.32140777 0.23386809 0.0496681 1.0059273 -0.004349885 -0.4754807 -0.062514365 0.09253716 0.068442106 0.10421017 -0.24280791 0.7119661 0.6575909 0.35299847 0.06528629 0.022086484 0.56386703 0.21940285 0.29177904 -0.0075423764 0.10684309 -0.055247784 -0.35251474 0.07632996
1010 -0.05995594 -0.16830964 0.86812335 -0.1066956 0.19475849 -0.14083566 -0.011310018 -0.753128 -0.31496292 -0.016335182 0.4554749 -0.19139607 -0.7727348 0.27700707 0.043507256 0.053265236 -0.06595845 -0.368703 -0.3317867 -0.35047263 -0.002259017 0.34083068 -0.045717347 0.12084497 -0.15730982 -0.59633917 0.017600406 -0.22798583 0.38392535 -0.27215335 -0.04659712 -0.15568736 -0.29058534 -0.16700038 -0.2073241 -0.36194685 0.34248987 0.309068 -0.57043046 -0.6278679 0.6504957 -0.19282627 -0.2551055 -1.1079189 -0.2236274 0.018874537 0.31014135 -0.62099475 -0.35121936 0.17109232 -0.00958216 -0.06329355 0.31001672 0.12399905 0.10701192 -0.21995308 -0.20782219 -0.020510565 -0.14979732 0.26339158 0.3288536 -0.41591987 -0.20590816 0.37788308 -0.34520093 0.3750758 -0.32532403 -0.18779643 0.021780847 0.12824872 0.36504298 0.42845958 0.27872404 -0.26307786 0.9831875 0.45577654 0.29250622 -0.19555978 -0.3630988 -0.14686543 -0.3167253 -0.16069141 0.42573592 0.072721004 0.2703429 -0.35752594 0.4278713 0.29046917 -0.6244673 -0.0859048 -0.24905002 0.016153224 -0.0964324 0.48564434 0.11286896 0.54360193 -0.41887176 -0.25439572 0.36435828 -0.2977197 -0.14018892 -0.42854214 0.33697146 0.28883916 0.07542569 -0.70395464 -0.19982333 -0.077884264 -0.06770659 0.061913043 0.14156485 0.39577034 0.14715259 -0.19992478 -0.23902255 0.3755063 0.3479718 0.48042193 0.53730965 -0.0042410516 -0.29099023 0.73264265 0.033613656 -0.08312936 0.010391211 -0.38648838 -0.27945247 -0.25977644
1130 0.23549135 -0.13682204 0.4155843 0.45696297 0.84010315 -0.4121937 -0.43140063 -0.361876 -0.19592066 0.24244203 0.6751229 -0.17829688 0.026516141 -0.0047652726 0.55433655 0.028274212 0.10868922 -0.17152575 -0.076561935 -0.42145583 -0.6783875 0.1699413 -0.35535425 -0.6300128 -0.34441578 -0.13361795 -0.19148667 0.04127032 0.410658 -0.77807873 -0.119941 -0.23511185 -0.1896449 -0.17699958 0.17342603 -0.04589528 -0.062364843 -0.089312434 -0.05927959 -0.5640736 0.003889342 -0.107107356 0.066399544 -0.56835383 -0.28221774 -0.3179972 0.12551095 0.043073133 -0.5635612 0.17513949 -0.63623303 0.5621042 0.5407564 0.65479386 0.0511389 -0.5758408 0.62817097 -0.09128842 -0.35106987 -0.1104572 0.28667942 -0.40852267 -0.067622155 -0.13558489 -0.4795545 -0.14704679 -0.24786039 -1.1087509 0.3019894 0.13676602 0.19916561 0.11067726 -0.5171294 -0.37402537 0.37194106 -0.0031129653 0.45530567 -0.14195913 -0.1448123 -0.18402946 -0.08020847 -0.07488105 0.19772947 0.27233398 0.043848343 -0.37667662 0.0527076 -0.056485202 0.22178277 0.10837954 -0.09209521 -0.118753135 0.80201113 -0.32977453 0.19066115 -0.25726175 -0.35301715 -0.29519692 0.014269484 0.07152308 0.016303677 -0.023998007 0.50190085 -0.14178586 -0.27218437 0.20867522 0.16277182 0.09046499 0.05524367 -0.39400542 -0.29558393 -0.18466844 -0.39594477 -0.13382533 -0.021251129 0.55802506 0.6502019 0.28509 -0.08467207 0.03509745 0.17167222 0.4493113 0.39141217 0.6139554 -0.5545803 -0.33418795 -0.2132042 -0.35488987
623 -0.38036802 -0.14865437 0.52196276 0.26693234 -0.061072778 -0.14537682 0.0061708908 -0.5634188 0.39046046 0.30398944 0.1822095 0.24493013 -0.22552852 -0.5166087 0.22482686 -0.30738327 0.2517106 0.049760204 0.10296299 -0.13414434 -0.1794425 0.065550946 -0.020921571 -0.29978594 0.25418228 -0.92712975 -0.19489253 -0.15166351 0.010590837 -0.16385217 -0.410476 0.092029035 -0.7224282 -0.26740766 0.027869893 0.009091387 0.2863857 0.19796316 -0.24441974 -0.41121027 0.5950797 0.098911636 0.84081876 -0.5211384 -0.027828852 -0.5417969 -0.026976163 0.25298744 -0.08469823 0.23037064 -0.47250727 -0.10921894 0.5637378 0.5957549 -0.011001091 -0.1707318 -0.13461623 -0.5295466 -0.14302094 -0.23889028 -0.37703088 -0.08853144 -0.4493638 0.17037584 -0.47980574 0.07468811 -0.32539323 0.04325848 0.24235833 0.098450065 0.24722137 -0.1322056 -0.30094132 -0.34270707 0.2981096 0.25372675 -0.026674587 -0.4276467 -0.46089068 0.20965357 -0.1687435 -0.2599643 0.026255567 -0.28672597 0.3938568 -0.39753434 0.6894531 0.07212058 0.019592833 0.2041896 0.26796186 -0.2890043 -0.14367579 -0.54569566 0.33579153 0.13438804 -0.12981978 -0.028177815 0.0028295163 -0.64118344 -0.142881 0.08922809 0.38328046 -0.27637443 -0.05439892 0.15180299 0.49256137 0.38722596 0.2054422 -0.39114082 0.028911768 -0.21543492 0.134111 0.7605862 0.19839846 0.13081285 -0.11951769 0.2436042 -0.45516136 -0.63958627 0.23728895 0.2237666 0.3164776 -0.18500686 -0.9021175 -1.1066252 -0.12613949 0.21479246
758 0.3400102 -0.39275753 -0.07615801 0.27706155 0.5830664 -0.1734725 0.0252754 0.15104878 -0.04832471 0.8626201 0.22638983 -0.09807664 0.13985693 0.49723476 -0.08993478 -0.1351059 0.10488483 -0.044329144 -0.18735681 -0.0032811237 -0.1306582 0.012910806 0.44932532 -0.77472746 0.24441528 -0.6663308 -0.5609499 -0.093987145 0.27794594 -0.36260986 -0.36384252 -0.39930817 -0.47718018 -0.25005808 0.00017267608 0.3240849 0.21572873 0.44659972 -0.43420273 -0.3054508 0.67145604 -0.05372386 0.838629 -0.7133926 -0.118972555 0.18831424 -0.089057624 0.23382728 -0.63107365 0.0027891821 -0.08006756 0.094946966 0.2065629 0.2662589 0.5159751 -0.28698343 -0.545569 -0.09667759 -0.3841336 -0.10163995 -0.0033706692 0.40964016 -0.031824604 -0.10719788 -0.4136026 0.05534576 -0.17856151 -0.61303383 -0.27661428 0.0066288295 -0.11158271 0.51654875 0.24942453 -0.38489458 0.030258747 -0.19205062 0.5402692 -0.22011618 -0.268089 0.31528953 -0.011626675 -0.22846009 0.21331559 0.20872062 0.10887568 -0.31961185 0.41394097 -0.16167812 -0.25729853 0.38718846 0.373022 0.06330333 0.34467027 0.03528177 0.104392104 0.5941562 -0.16557802 -0.28075686 -0.36394474 -0.10795246 -0.061335377 -0.02323146 -0.13070828 -0.37312388 -0.32943633 -0.11220437 0.42239055 0.5148851 -0.2174832 -0.08779803 -0.7153981 0.37009054 0.5746997 0.68078667 0.0551901 -0.025873635 -0.11084711 0.3955095 -0.05668707 -0.4052798 0.2346818 -0.29273635 0.6539616 0.5001358 0.023225682 -0.43306574 0.23473996 0.34907538
877 -0.2799375 -0.26996657 0.75636524 -0.323647 0.56399304 -0.4392393 -0.019272735 -0.79036015 0.21572934 0.06067388 0.18663578 -0.528 0.10092812 -0.13024183 0.11983336 0.19493937 -0.47745878 -0.30110833 -0.10650501 0.19066179 -0.4946576 0.18662697 -0.39649254 -0.094502375 0.36750787 -0.53280705 -0.02086703 0.3059684 -0.1004051 -0.84476113 -0.19650498 0.003769973 -0.5722121 0.04565116 0.46616516 0.16132684 0.33829778 0.11970709 -0.9535619 -0.21345204 0.2301865 -0.07998179 0.06415214 -0.5414528 0.56957877 -0.39968506 0.14464381 -0.12264543 -0.7469222 0.047935467 -0.25603172 0.5681219 0.2604904 0.1790165 -0.22616577 -0.41650197 0.19777182 -0.32711598 -0.13325523 -0.011862536 -0.098281436 0.07738748 -0.40720648 -0.44443294 -0.18730396 0.8468511 -0.11651418 -0.017096687 0.271538 -0.26188147 0.022070093 0.14667912 0.53702354 0.059252713 0.29080775 -0.20323282 0.61872953 -0.048959058 0.015243281 0.22281377 -0.10141009 0.5301275 -0.0010905785 0.17591898 0.12185345 0.11207729 0.711359 -0.22141014 -0.22462891 -0.054873455 -0.21509992 -0.73983485 -0.09176722 0.21543124 0.33717775 0.43278632 -0.169986 0.12959367 -0.26338616 -0.14473648 -0.0014436473 0.011788257 0.36364758 -0.22057347 0.5268555 -0.31117636 0.51551765 0.26674247 -0.2654364 0.23171367 -0.035639327 0.04806166 0.23976527 0.31597024 -0.36196336 -0.38568944 -0.00015575504 0.78688157 -0.4081085 0.008216295 0.49099094 -0.059328694 0.20711866 -0.019292967 0.8363024 -0.27364358 -0.08556553 0.39690048
530 -0.037096277 -0.06353561 0.41415784 0.30271465 0.33185413 -0.52777344 0.023231238 0.087674156 0.12682499 0.29642314 0.21889967 0.018279802 -0.38324952 -0.097495124 0.46698308 -0.099190466 -0.048661973 -0.45397404 -0.24262 -0.26685372 0.21594332 -0.20800705 0.04762053 -0.4781784 0.14526042 -0.40109804 -0.44617155 0.1027084 -0.36938277 -0.2295715 -0.106981635 -0.24507356 -0.5015468 -0.01732634 0.096078314 -0.25692344 0.13372765 0.15435046 -0.41144526 0.2173599 0.47217554 -0.03683567 0.028617458 0.060778383 0.20616102 -0.0929921 -0.0807176 -0.8365158 -0.21464664 -0.07362004 -0.376879 0.120263726 -0.19310409 0.65694165 -0.17703375 -0.074360654 0.56949335 -0.21381857 -0.80831075 0.042062216 -0.31804088 0.44223657 -0.40402955 -0.29843736 0.22622816 0.12978016 0.08362835 -0.7280592 0.04543132 -0.25161174 -0.035647433 0.19163893 0.58036685 -0.37440604 0.27410173 0.50818104 0.15479954 -0.4316197 0.105314836 -0.6973589 -0.3063316 0.4108463 0.24402767 0.02375364 -0.23439777 -0.67522365 0.7016159 -0.071276754 0.26053107 0.005908602 0.38796255 0.34677568 0.5915831 -0.19453648 0.76972854 0.39105618 0.4249021 -0.5064055 0.0676845 -0.07306765 -0.16329078 -0.14539877 0.4022607 -0.07483059 0.28196728 -0.4476132 0.7743052 0.09828086 -0.058760338 0.64357364 -0.292959 -0.08945286 -0.19338022 0.08438871 0.47962567 0.20367315 -0.024561308 0.18017627 0.116588 -0.6247178 0.2685974 0.13004012 0.053928494 0.27617255 -0.15302226 -0.5634979 -0.4388744 0.16654208
539 0.15590438 -0.55503744 0.85423064 0.3522989 0.31183854 0.2942647 -0.4641254 -0.27678996 0.45065114 0.37856272 -0.24112956 -0.45644614 -0.44530907 -0.13990164 0.42774892 -0.39269632 -0.20629156 -0.27628917 -0.12732604 -0.5223484 -0.1526208 0.6359978 0.14412512 0.34637183 0.21908654 -0.317782 -0.103631675 -0.11699602 -0.20322509 0.013736481 -0.51331824 -0.8469282 -0.4644595 0.5774476 0.35743052 -0.10379866 0.67476547 0.24412155 0.24526276 -0.13867213 0.24685076 -0.09327732 0.08396312 -0.30342475 0.19144487 0.17022228 -0.2806119 -0.3054608 -0.34078112 -0.19447628 -0.12318295 0.43679738 0.30883345 0.58383584 0.32060015 -0.16428661 0.11609873 -0.27006283 -0.6003529 0.08137279 0.42662302 0.087819695 -0.48776206 0.08341763 -0.48416004 -0.14736047 -0.25963354 -0.06776888 0.09529024 0.09125377 0.07777715 0.33720976 0.056498643 -0.27648798 0.5523119 0.0019735245 0.59104156 0.39438167 0.01753722 0.75009507 -0.08816796 0.10561891 0.25334623 0.02973802 0.34967527 0.06454918 -0.025346287 -0.13900447 -0.44633535 0.15147161 0.3081665 -0.19678056 0.33988374 -0.18815261 0.43037963 0.13825132 -0.32407892 -0.6866072 0.06768661 -0.5766118 -0.16543743 -0.34137407 0.035237826 -0.12799187 0.22965494 0.18196772 0.11709595 -0.044493776 0.037349224 -0.10827784 0.38038027 0.16430494 0.22813116 -0.21321538 0.015855249 0.5423735 -0.21655646 0.8028499 -0.41840225 -0.6644996 0.603848 0.17002015 0.5360846 0.41970906 0.1466284 0.38624325 0.015685283 0.22091898
757 0.44704863 -0.4855052 -0.07468349 0.25358918 0.56148714 -0.21169858 0.21021034 0.14297356 -0.16258599 1.0496854 0.15451853 -0.08062595 0.3640995 0.46661165 -0.076210186 -0.15042979 0.04008336 -0.14279649 -0.11210889 0.12522022 0.0032013385 0.07178273 0.30682176 -0.77887344 0.084592015 -0.5142443 -0.44622436 -0.074359685 0.12653781 -0.53498405 -0.3181275 -0.41216612 -0.407637 -0.21153474 0.03889963 0.2977326 0.070027344 0.40552413 -0.32090372 -0.25066265 0.5054258 -0.15285112 0.8607018 -0.73498046 -0.078428335 0.27817935 -0.19981787 0.20071526 -0.56471246 -0.054069795 -0.07921127 0.24939947 0.298712 0.077308774 0.44966137 -0.25278094 -0.36189863 -0.103281125 -0.4634984 0.057967756 -0.069809064 0.4431017 0.019574014 -0.2087101 -0.32241446 0.18709117 -0.1995887 -0.7778638 -0.28254837 -0.13623565 -0.26941824 0.37321028 0.23696744 -0.3680584 0.034335036 -0.21037804 0.51286244 -0.0063143503 -0.19924743 0.289957 -0.068147495 -0.22757797 0.28993246 0.28297555 0.25145316 -0.32478845 0.18445046 -0.31295055 -0.027347866 0.47221205 0.43442905 0.21210736 0.52199733 0.22603063 0.01487219 0.3961187 -0.10982344 -0.5103151 -0.35949323 -0.08392775 -0.1742437 0.026069634 -0.024461454 -0.26254863 -0.11329083 -0.03314318 0.40447488 0.49634585 -0.14339565 0.028437518 -0.6013347 0.3151965 0.6101773 0.702676 0.18791693 0.013009054 -0.10567312 0.60695237 -0.17109606 -0.50370556 0.3614141 -0.23777455 0.7611051 0.5490191 0.046284206 -0.24915141 0.3313676 0.40936986
1037 0.18711597 -0.5624671 0.6561204 0.221987 0.86240554 -0.11158309 -0.040030316 -1.0886875 -0.03066644 0.030973388 0.060772758 -0.01104993 0.28630668 -0.28935832 -0.32003507 -0.481885 0.09032946 -0.4340302 -0.45542702 0.08144792 0.22686462 0.1756935 0.39065018 0.07588118 0.04256885 -0.067969345 -0.1372071 0.111819535 -0.04728977 -0.34635818 -0.02348189 0.3429159 -0.6397246 0.2223698 0.31606367 -0.31713596 0.8406828 -0.07325745 -0.1212945 -0.08477662 0.34927505 -0.046395034 0.0039911363 -0.5373593 0.11826845 -0.111178234 0.021525668 0.19993883 -0.5394177 -0.3892657 0.14268531 0.20906985 0.02041218 0.31711212 -0.029939558 -0.1953494 -0.14092438 0.11777234 -0.21429089 -0.4701682 -0.2347671 -0.028147968 0.46476212 -0.17949261 0.21312313 -0.25308338 -0.65602213 -0.817623 -0.5175227 -0.15267302 0.0596584 0.5044989 0.22584046 0.0034959202 0.6167355 -0.12394478 0.5179543 0.037687 0.13646479 -0.26977754 -0.55274224 0.43021163 0.30768836 -0.2962302 0.05346019 -0.7037409 0.5226156 0.18678139 0.16438545 0.28506404 0.14975955 0.24399076 0.62324625 0.14244013 -0.07985908 0.030303296 -0.24770446 -0.06562699 0.19604449 -0.1351755 0.104984656 -0.24991348 0.28401595 -0.28749925 0.14557622 0.5265511 0.027938928 0.26431525 -0.17768458 0.11868997 0.09126551 0.41739178 0.17332979 0.30635643 0.21297425 -0.012577438 -0.5011923 0.9146088 0.46986485 -0.54961175 0.19256116 0.31150723 0.3455922 0.059817195 -0.0925634 -0.464721 -0.23628111 0.012997379
1175 0.10537609 -0.9823178 0.620525 0.26184705 0.13082628 -0.35018116 -0.32746413 -0.43807232 0.30578864 0.31557325 0.35183656 -0.38968697 0.054418128 -0.14852376 0.016728856 -0.326711 -0.009443011 -0.32607207 -0.39658806 0.14640206 -0.15023158 0.20929626 -0.06922392 0.05964788 0.41627148 -0.18198028 -0.31886533 0.20910113 0.3742736 -0.6719232 0.04411269 0.4159334 -0.48402724 0.15826045 -0.07562038 -0.3618867 0.30281708 -0.3701625 -0.2326634 -0.41313896 0.38828552 -0.3114916 -0.6455488 -0.47850144 -0.22639664 0.09123301 0.17499363 0.26776472 -0.24460872 -0.04959253 -0.108587734 0.4474807 0.224487 0.92121196 0.42361566 -0.34215254 0.007931658 -0.16690515 -0.56874335 -0.5135436 -0.44582564 0.09950446 0.0694555 -0.66712177 0.035349812 0.22062247 0.17395788 -0.28155738 0.02178257 -0.22771919 -0.107424706 0.25459066 0.009675603 -0.17676422 0.80400693 0.5158339 0.33719382 -0.37547773 0.29455492 -0.11207029 -0.457276 0.43963003 0.038153358 0.25938883 0.30958146 -0.43615958 0.5681583 -0.111817256 0.059701215 0.3427264 -0.08234462 -0.036659114 0.11741768 0.2234437 -0.3808544 0.06785982 0.3510896 0.42471457 0.3330245 -0.20703287 0.30737787 -0.13241453 -0.54067683 -0.116836414 0.090850614 0.45107844 0.2378632 0.29935384 -0.023449078 0.60498136 0.7026406 0.32652697 -0.02805699 0.05185044 0.18199494 0.44598016 -0.19507425 0.78324074 0.26394117 -0.77483416 0.45711306 0.27847028 0.38233793 -0.06815221 -0.45503277 -0.89758015 -0.04754224 0.047709316
382 0.180105 -0.26993635 -0.06045445 -0.00094879995 0.2527693 -0.3084851 0.49437332 -0.72712386 0.25418338 0.024859782 0.27767822 -0.26347196 -0.50622743 -0.45748365 0.4181148 0.079737216 0.05938726 0.25628135 -0.0991912 0.1234839 0.22458509 0.47668767 -0.13581294 -0.29357383 -0.13770632 -0.13233067 -0.38154304 -0.46169546 0.37626073 -0.23920617 -0.6726577 -0.101415895 -0.3028633 0.033789165 0.41457734 -0.09460296 0.54507697 -0.17181362 -0.47616678 -0.27169773 0.28042954 0.066120796 -0.047535483 -0.42052203 -0.068639174 -0.8423357 0.168313 -0.12706354 -0.6049027 0.30641875 -0.0739458 0.15241995 0.47771844 0.10430531 0.11482898 -0.17251809 -0.35876232 -0.0741517 -0.6712165 -0.40693873 0.5210722 -0.116252735 -0.16678259 -0.23947456 0.16289674 0.6553606 -0.23181702 -0.5254929 -0.24756527 -0.03666077 0.37978828 -0.45602563 0.15110463 -0.575613 0.5370099 -0.38034752 -0.17760606 0.5668017 0.0972084 0.25025356 0.13870895 0.41276225 0.5663976 0.18966939 0.38099882 -0.5151324 0.3627151 -0.69615793 0.018675491 0.004185279 -0.12426252 -0.18654959 0.67318743 0.04240877 0.066055946 -0.2670122 0.07302311 -0.8059383 0.6473448 -0.17136933 0.010176445 0.22988209 0.3219095 -0.017506417 0.14556932 -0.19904037 0.44459924 0.26055443 0.52306813 0.28926304 -0.0111949155 0.0015195761 -0.019063437 0.47142997 -0.33287096 0.5707585 0.14358708 0.3899115 0.39706242 -0.71886826 -0.12256752 -0.067489095 0.3013259 -0.17458215 0.2960594 -0.24591035 -0.033002004 0.058889445
730 -0.5842711 0.48171994 0.73239005 0.08783101 0.18775061 -0.33220202 -0.4850659 -0.6426996 0.28964064 0.19398315 -0.009432902 -0.20524201 -0.3284454 -0.63431937 0.10720514 -0.30888537 0.0061814478 -0.34132794 0.1790501 0.3122768 -0.11082379 -0.037019864 -0.012539227 -0.33487266 0.17614561 -0.6828969 0.06481302 -0.3320558 0.29580763 -0.21413623 -0.16540268 -0.20004223 -0.68474674 0.26362425 -0.0056277392 0.020806482 0.0014479702 0.28443727 -0.44462377 0.16066056 0.21064694 -0.0996174 0.45407814 -0.71529126 -0.057520587 -0.1813541 0.38245633 0.37884042 -0.28416798 0.31802246 -0.48415285 0.31708667 0.24989623 0.41853425 0.093504675 -0.44698712 0.11005923 -0.12738827 -0.4152832 -0.22302727 0.30651098 -0.076189175 -0.032151576 -0.46507215 -0.0787596 0.061083987 -0.2403071 0.06578828 0.062503524 0.6916441 0.0613748 0.18488261 0.19915241 -0.6477038 0.85313135 0.12776908 0.055101883 -0.46768528 -0.06675344 -0.2951143 -0.128232 0.18926555 0.076409206 -0.53518134 0.68204826 -0.2711015 0.46731043 0.096065335 -0.54492277 0.24754748 0.40410647 -0.077084444 -0.1902706 -0.43749228 0.5403829 0.07806243 -0.3867943 -0.2728345 -0.026150996 -0.4023088 0.06980048 0.15229923 -0.11272096 -0.26259327 0.3638719 -0.017144293 0.2709752 0.15214847 0.032352116 -0.45879522 -0.19216546 0.2847211 -0.170456 0.19380507 -0.061507083 -0.12860708 0.0667024 -0.13966586 -0.6553844 -0.5799988 0.6479214 0.08340245 0.4784897 -0.19816409 -0.8205713 -0.7962365 -0.25890106 0.032881286
800 -0.29007834 0.5073485 0.5989781 0.14541948 0.16180064 -0.3698496 -0.30870214 -0.3204663 -0.012314608 0.013661301 0.2720946 -0.45479783 -0.34132403 -0.3837227 0.2667559 -0.1358503 0.011895152 -0.47754687 0.07063056 0.24751757 -0.09297973 -0.026013806 0.052037127 -0.10686023 0.19904448 -0.79531467 -0.068157814 -0.20753177 0.38626087 -0.3535431 -0.14478657 -0.36893782 -0.6337735 0.46470964 -0.28889054 -0.19977552 0.10110047 0.3984066 -0.53375965 0.227065 0.12196589 -0.2872927 0.24386728 -0.68912804 -0.112449124 -0.15371098 0.47961646 0.1139615 -0.5821545 0.19511257 -0.42677292 0.19171834 0.3587317 0.329205 0.37402415 -0.41797787 -0.11366509 -0.04614091 -0.5218521 -0.11225876 0.63727957 -0.17314328 0.08963113 -0.22733109 -0.12922601 0.2594638 -0.077177964 -0.014701207 0.01238989 0.85874724 0.15525158 0.2935463 0.29411823 -0.66237974 1.1225154 0.1629462 0.19215672 -0.5160611 -0.085053466 -0.14796822 0.03310039 0.21823466 0.21353564 -0.30756423 0.7759077 -0.23770818 0.33586848 -0.00031461223 -0.70394516 0.35928681 0.36119428 0.04960289 -0.0830222 -0.0699141 0.37934786 0.3559185 -0.056396533 -0.3309757 0.18583918 -0.5062332 0.25672886 0.16043843 -0.41882154 -0.16454273 0.13620546 -0.13347274 0.05456184 0.1603422 0.13805175 -0.21054941 -0.3793101 0.33198115 -0.04085225 -0.030827405 -0.19974932 -0.056358363 0.2762192 -0.019672519 -0.22279494 -0.38759464 0.36962765 -0.0041015293 0.40501684 -0.06020662 -0.5254372 -0.70816994 0.096783414 0.11546874
65 0.25640318 -0.1386595 0.561321 0.08917774 0.56729794 -0.37520394 0.02498057 -0.26910782 0.52346486 0.5279619 0.16153932 0.16540004 0.015641171 -0.050170526 -0.4516324 -0.14019148 0.41020387 -0.1416895 -0.41404393 -0.08640433 0.22629063 0.5575829 -0.11071258 0.0003061867 -0.31590393 -0.6457773 -0.3966803 0.23773894 0.08804631 -0.5386833 0.4040784 -0.060954913 -0.25485447 -0.16486563 -0.25650185 0.30122685 0.007826326 -0.08880352 -0.092284024 -0.046911754 0.0018909038 0.4629536 -0.22686917 -0.7895068 -0.1554687 -0.18677211 0.02299297 -0.30918917 -0.5645436 0.17142808 -0.38631368 0.6035438 0.2272294 0.567486 -0.520538 -0.66266495 0.067248985 -0.33357733 -0.34497 0.43376198 0.06823978 -0.04337394 -0.13761616 0.21426143 -0.5518212 -0.2913026 -0.8331491 -0.37981427 0.33787647 0.20822705 -0.15385543 0.12150117 0.7049059 -0.14737153 0.56176764 0.24631044 0.46851423 0.25840178 0.3180132 0.3031329 -0.2133885 -0.017483506 0.16011257 0.39397252 0.58344257 0.081632294 0.73145366 0.17084056 0.4944132 -0.23329797 0.31959435 -0.11519073 -0.14036773 -0.13613024 0.23570389 0.38121828 -0.013566524 -0.7906193 0.060449302 -0.38626972 -0.44467407 -0.19572012 -0.031010695 -0.44212958 0.37984747 -0.3924417 0.6662615 0.18852174 0.34491143 0.22372821 -0.32677597 0.11695066 0.19831458 0.13859698 0.4699523 0.1629349 -0.03594646 0.1790774 -0.1746536 0.08155604 0.22935598 0.43061382 0.6798069 -0.32840598 -0.3926719 0.0005257875 0.4483417 0.18691371
1173 -0.01239526 -0.93058425 0.52239 0.23982212 0.074362956 -0.39353415 -0.3551165 -0.36858425 0.1679824 0.28910634 0.090162635 -0.31064898 0.22705245 -0.23577651 -0.1615173 -0.5172238 -0.04555422 -0.26171055 -0.12126264 0.30251053 -0.19183944 0.2970641 -0.25159377 -0.26788473 0.13576317 -0.34644017 -0.16018008 0.15265922 0.26696375 -0.82253826 0.13130099 0.40319124 -0.50915515 0.13507648 -0.094415314 -0.3631166 -0.13254976 -0.23680292 -0.17663124 -0.31850323 0.26139408 0.006989895 -0.5017165 -0.3130451 -0.008386855 0.1111459 -0.0062471693 -0.073519476 -0.56903535 0.20082362 -0.17957346 0.29664767 0.3514652 0.7515746 0.4679304 -0.10382971 0.11225471 -0.21278849 -0.71427506 -0.20286703 -0.20827241 0.21350507 -0.013857412 -0.6789341 0.18372631 0.15515062 -0.037599713 -0.41819754 -0.023208955 -0.2791634 -0.22216918 0.17888099 -0.049007237 -0.21258798 0.6835517 0.5843134 0.3095263 -0.52637446 0.098031566 -0.025577284 -0.34000704 0.33787024 -0.11101767 0.40883192 0.36309552 -0.08541436 0.52906424 -0.16029824 -0.11531549 -0.041575354 -0.13045691 -0.1965139 0.25699684 0.39292842 -0.54000556 -0.16975735 0.21207146 0.39446247 0.38716027 -0.14831169 0.28586352 0.009980189 -0.5435261 -0.31003278 0.32535574 0.39289603 0.29622442 0.33622092 0.040676594 0.6163132 0.3293225 0.45999327 0.15963836 0.04957097 0.013126946 0.5714664 -0.050279904 0.68628937 0.22353588 -0.727979 0.41075024 0.4008581 0.4888749 0.29940438 -0.6128327 -0.7939337 0.06265572 -0.09227248
274 0.48304105 0.2725529 0.09009096 -0.0064802784 0.43313432 -0.40586793 -0.059645105 -0.74060625 0.14974403 0.5921557 0.096806034 -0.05731322 -0.55489045 -0.10482761 -0.037856072 -0.44295526 0.24904938 0.035097476 -0.20560224 -0.15398704 -0.06310191 0.54707956 -0.4835794 -0.15238978 -0.104433425 -0.013957946 -0.46181822 -0.5248702 0.46145076 -0.929136 -0.2361413 -0.0063321115 -0.36538273 -0.08131014 0.47161332 -0.2470775 0.5164493 -0.23034883 -0.6127496 0.096515104 0.30892554 -0.21576217 -0.35026234 -0.36794108 -0.15032162 -0.3971017 0.08872936 -0.3405008 -0.51511127 0.55128366 -0.001860969 0.4952265 0.69893646 0.21785109 0.28147894 -0.20630257 -0.7291265 -0.39685276 -0.6372523 0.008950887 -0.18943363 -0.15945213 0.03297588 -0.35992798 -0.040078018 0.35465056 -0.21416998 -0.47673652 0.11192668 -0.023571549 0.20513825 -0.051060572 0.23092568 -0.010179454 0.7337262 -0.08383195 -0.2649388 0.48906636 0.1665224 0.19316515 0.04418568 0.47137454 0.36006615 0.44350788 0.29963285 -0.39146432 0.5744024 -0.3748503 0.10602678 -0.33131927 0.40644166 -0.07257387 0.6650828 0.051516354 0.010911994 0.17962876 0.3243434 -0.44139758 0.1310239 0.18784927 -0.2985214 0.019021504 0.4467164 -0.25631216 0.23696288 0.072037145 0.18362983 -0.1918149 0.5406539 0.16087139 -0.103214435 0.26318097 -0.14357974 0.011591641 0.08884889 0.060761828 -0.07441534 -0.27495348 0.030334326 -0.60796106 0.42808127 -0.21042395 0.2838343 -0.670288 0.10259731 -0.30112803 0.15611121 0.12000177
629 0.018792456 -0.55032027 0.5143953 0.1886075 0.086502165 -0.38158035 -0.25831392 -0.29660773 -0.17952241 0.40354043 0.13263808 0.14912137 -0.18422654 -0.6526214 0.0046628565 -0.28599638 0.06013492 0.048510466 0.52038246 -0.084960386 0.09157464 0.48602492 0.5138354 -0.6598118 -0.10993936 -0.03003139 -0.34232628 -0.020396324 -0.035362687 -0.28060845 -0.141337 -0.25784168 -0.73177326 0.73091495 -0.2472246 0.11322812 -0.034338865 -0.16157638 -0.08256465 -0.20846319 0.041743606 -0.15961643 0.6786922 -0.81870013 0.103879005 -0.51498276 0.34858704 0.41502357 -0.13978073 -0.13060011 -0.3781678 0.40778178 -0.11629967 0.5664511 -0.48776412 -0.3152361 0.12599425 -0.53100866 -0.6863412 -0.5326499 -0.06483322 0.31667155 -0.18017508 -0.14859214 -0.047619116 -0.0375111 -0.5639252 -0.52787745 0.022646166 -0.04380329 -0.44095007 0.0503901 -0.20709187 -0.5398333 0.4320191 -0.18641877 0.09741442 0.0135475155 -0.14603788 -0.15518492 -0.61141187 0.16327736 -0.23025055 0.005458274 0.82371277 -0.14818622 0.46358752 0.028981319 -0.0784987 -0.004664599 -0.024835933 -0.19803984 0.08871574 -0.41392446 0.48529583 0.057337474 0.5152953 -0.570201 -0.07891384 -0.50959426 0.41784948 0.37601689 0.2313732 -0.44420263 0.32291484 -0.21808122 0.08831738 0.43056417 0.049509533 -0.26102853 0.18206991 0.011281661 -0.21171021 0.9026826 -0.23488513 0.4066439 0.29518044 0.29068285 -0.42538142 -0.5061318 0.4364288 -0.022942375 0.65109956 -0.13232057 -0.4110581 -0.10677453 -0.60422903 0.19812319
240 0.47458783 0.30914888 0.19549315 0.06876858 0.27756464 -0.40794075 -0.1700824 -0.6698707 0.2971815 0.629301 0.1737163 -0.041586466 -0.73266727 -0.105127245 -0.12641051 -0.24791701 0.3843068 0.18192805 -0.11214512 -0.09866907 0.17417312 0.6856925 -0.36030078 -0.2306 -0.106954075 -0.11761798 -0.43217272 -0.40191385 0.38423803 -0.8751822 -0.10608471 0.049187366 -0.1232258 0.08066282 0.67267174 -0.075500645 0.48254544 -0.418683 -0.58174026 0.31970918 0.37634826 -0.07866449 -0.37920535 -0.5968121 -0.16375037 -0.5183126 0.17329681 -0.3979647 -0.6735251 0.42146787 0.063174754 0.371585 0.7583861 0.33068955 0.08707013 -0.3293925 -0.7395753 -0.33128923 -0.65132505 0.047837928 -0.2561661 -0.031451713 0.23440513 -0.20522848 -0.0029685192 0.13533282 -0.16685377 -0.5807402 0.04738283 -0.10715714 0.07760051 -0.29026222 0.18966877 0.09611092 0.66131616 0.13344264 -0.01712974 0.5079582 0.11083788 0.1051454 -0.015071002 0.36815313 0.30581814 0.45388103 0.3305841 -0.48347902 0.60851395 -0.3134238 0.17459732 -0.3304083 0.49067116 -0.09776342 0.5150603 -0.0005596329 0.12847355 0.14696497 0.23501736 -0.68964046 -0.13186376 0.31495908 -0.16402979 -0.11754266 0.20303404 -0.35714057 0.2170951 -0.12722425 0.16356803 -0.108840466 0.3843114 0.08262527 -0.019853411 0.40749857 0.04479856 0.028506596 0.10124185 -0.03847357 0.038899332 -0.13169831 -0.21588348 -0.36708918 0.51605 -0.12925375 0.4208903 -0.6156398 -0.08314302 -0.23775385 0.16662127 0.29717484
1088 -0.2594666 -0.5503154 0.4395153 -0.5000076 0.3175909 -0.4842117 -0.13714074 -0.4516054 -0.069683716 0.06300333 0.22848657 -0.34117028 -0.36959916 -0.09783544 0.13265526 0.20941103 -0.24499092 -0.63666505 0.2102809 0.076102436 -0.42830303 0.33946455 -0.19362947 -0.04379026 0.29018652 -0.18926957 -0.06506172 -0.17150424 -0.023293491 -0.42809317 0.09065254 0.23383512 -0.63231945 -0.1429159 0.50450534 -0.12969698 0.5837442 0.31034115 -0.58127534 -0.40277147 0.4908669 -0.21031748 0.17175189 -0.8532973 -0.015523265 -0.06368239 -0.09489907 -0.61243814 -0.41297606 0.21252163 -0.35511166 0.55262005 0.24201073 0.16398427 -0.03976646 -0.8110825 -0.14490587 -0.56989115 -0.19813064 0.060260158 0.28462645 -0.08130186 -0.098521546 -0.7644937 -0.7008023 0.45806986 -0.15389727 -0.5884179 0.65682936 0.26151943 -0.11224904 0.30267823 0.33008415 -0.36002928 0.34496963 -0.29842284 0.72853374 0.28855127 0.34971222 -0.23880568 0.053965587 -0.3186804 -0.18099494 -0.17160277 0.18282667 -0.46864516 0.29095137 -0.059249803 0.52382123 -0.3417941 -0.47241223 0.06051349 0.49314195 0.1409943 -0.24791576 -0.10679036 -0.2499878 -0.32919118 -0.17859676 -0.38192677 -0.26178437 0.16992633 -0.43402898 -0.39820716 0.37006637 0.24957734 0.09981061 0.8076758 0.085061766 -0.42608613 0.010450546 0.020122314 -0.0023188451 0.08470666 -0.1086861 0.5989628 0.5336904 0.4395426 -0.115139954 0.064084694 0.556504 0.20771897 0.41596276 -0.03919349 0.10476444 -0.053831708 -0.31678686 0.034028515
495 0.019020142 -0.12972291 0.37798864 0.3317584 0.28189272 -0.546369 -0.07226992 0.03909038 0.0598152 0.13446666 0.1657004 -0.052473538 -0.46213132 -0.124893874 0.3364957 -0.15576634 0.04719704 -0.44100982 -0.2841286 -0.45561948 0.20931803 -0.05175019 0.15293948 -0.45332277 0.07843227 -0.39256835 -0.25381348 -0.016222412 -0.18300207 -0.21561553 -0.06924749 -0.2899143 -0.6041657 -0.10998748 0.2709913 -0.32042918 0.057755172 0.17690235 -0.23962617 0.20641078 0.5131478 -0.049693547 0.121564776 -0.027971946 0.2956215 0.041253448 -0.026123602 -0.8655454 -0.05264802 -0.15030023 -0.4011229 0.092316136 -0.087319024 0.5967902 -0.09929164 -0.26479864 0.5733661 -0.1942163 -1.0607826 -0.021928934 -0.43964615 0.24715501 -0.4042867 -0.21072888 0.25379306 0.23872297 0.10598235 -0.8197073 0.0095039625 -0.17646639 -0.048032098 0.20722964 0.6801271 -0.44080657 0.31034446 0.60338616 0.088356495 -0.39793402 0.20892283 -0.66069573 -0.12579332 0.27247217 0.20472397 0.015665233 -0.24586903 -0.7352111 0.63814664 0.030864192 0.29041117 -0.028107366 0.31215128 0.42112616 0.5770653 -0.019592639 0.8239665 0.43465707 0.4293067 -0.480936 0.1403868 0.001552255 -0.22453521 -0.11730079 0.36508486 0.001298401 0.32468292 -0.5607795 0.64794916 0.27310774 -0.13239343 0.59687555 -0.19825964 0.018447338 -0.14163876 -0.04939274 0.58447856 0.24337894 -0.046092477 0.18058138 0.18427321 -0.514855 0.30829936 0.15499541 -0.041471366 0.27173078 -0.32812217 -0.5663733 -0.43599468 0.27117822
563 -0.08420948 -0.1504281 0.78408325 -0.17021732 0.5634195 -0.3395254 0.08967156 0.07452994 0.2594057 0.763045 0.24566019 -0.028426688 -0.5561039 -0.10772083 0.4984458 -0.24096316 -0.19353957 -0.48276943 -0.30560392 0.093710765 0.09785874 -0.30200753 0.01918136 -0.57800514 -0.059787862 -0.12461904 -0.4271252 0.073901385 -0.21389519 -0.46649018 -0.15135938 -0.17023562 -0.40171042 -0.029758904 -0.033697877 -0.31798238 0.14621855 0.0807773 -0.40877134 0.055779357 0.54388624 0.21529147 -0.281769 -0.14561576 0.25740835 -0.28813753 -0.056460556 -0.7039806 -0.36775374 0.12327044 -0.5710325 0.40107936 -0.0091301985 0.4268421 -0.35485914 -0.06139046 0.46454266 -0.16407737 -0.4307054 -0.17339803 -0.09451984 0.6520293 -0.3974963 -0.17614828 0.0019495353 -0.11694946 0.2459871 -0.40684214 0.19553924 -0.20653704 0.0892931 0.3744287 0.500267 -0.23014244 0.019689038 0.5139556 0.6083214 -0.52175564 -0.033187155 -0.61515933 -0.3980412 0.5103656 0.43430233 -0.02016183 -0.04616774 -0.344616 0.61313266 -0.25584298 0.22644112 -0.011481072 0.30802184 0.27257246 0.7082292 -0.09067831 0.54484236 0.22715913 0.5112665 -0.39357212 -0.2492416 -0.22525974 -0.14528686 -0.191985 0.47309145 -0.24051219 0.11914346 -0.32513008 0.65808797 -0.117292166 -0.060472365 0.6135314 -0.15646192 -0.07124603 -0.21678962 0.24064106 0.011391848 -0.092087775 0.3525316 0.22776859 0.0853161 -0.7517107 0.43777505 0.1543228 0.011563628 0.21861935 0.00620904 -0.73400754 -0.46413484 0.26985753
239 0.53248864 0.32276735 0.15543172 0.007987388 0.39953864 -0.46697417 -0.20997174 -0.69222414 0.17509852 0.6297212 0.09572422 0.022585595 -0.460402 0.01896235 -0.19658142 -0.3776037 0.31932348 0.10583249 -0.15841539 -0.18522727 0.04853225 0.5800513 -0.43724144 -0.15630019 -0.13967985 -0.033957265 -0.5337971 -0.42348754 0.39954934 -0.96195215 -0.04477184 0.012546668 -0.21662946 -0.044691928 0.5435957 -0.1621528 0.48022214 -0.26813668 -0.50340414 0.2518894 0.3151674 -0.1664115 -0.37465262 -0.53766245 -0.15581328 -0.40590498 0.08431673 -0.27937615 -0.57600975 0.47385162 0.034478918 0.56334406 0.69291383 0.45690218 0.15571414 -0.3153986 -0.7433937 -0.37761742 -0.68686545 0.114351355 -0.38914835 -0.09193024 0.103369445 -0.32600498 -0.1310251 0.1845791 -0.20898461 -0.5230813 0.13154079 -0.017358348 0.009575153 0.0037874002 0.26859814 -0.024857422 0.6954137 0.07518771 -0.107750535 0.54131526 0.21136276 0.16714814 -0.05289575 0.36448863 0.3324349 0.40279508 0.37595975 -0.22530484 0.5554268 -0.3000334 0.022360114 -0.28701335 0.4613199 -0.12673691 0.5372916 0.013289853 0.03041424 0.3378118 0.23792799 -0.6033694 -0.10679503 0.17003305 -0.33945522 -0.086013205 0.3076179 -0.31286922 0.2670943 0.0900152 0.14926708 -0.27229387 0.43784395 0.16144255 -0.090987176 0.3175852 -0.13034794 -0.034054257 0.20817453 -0.04980723 -0.063726135 -0.25038755 -0.12167089 -0.40705675 0.4293428 -0.13171695 0.3905917 -0.60663193 -0.033649378 -0.17769212 0.14498386 0.24332283
56 -0.4573763 -0.22235008 0.3467325 -0.38664612 0.21648332 0.14801809 0.019930016 -0.61529434 0.056779224 0.491133 0.14548983 -0.04733067 -0.016827272 0.15423031 -0.39285114 -0.52565175 -0.35439998 -0.29807898 -0.45858565 -0.6701242 0.36200112 -0.018485991 0.36222532 -0.33969533 0.20313646 -0.07592251 -0.56895643 -0.08397551 -0.08333459 -0.37803698 -0.00029082553 -0.34730062 -0.21548939 -0.29306018 0.0015609561 0.12308552 -0.14931864 -0.16578998 -0.8417898 -0.1485712 0.12480921 0.35510764 -0.089480616 -0.73533344 -0.08315216 0.25848025 -0.038556278 -0.17367738 0.310943 -0.14602785 -0.93946874 -0.21978216 0.58376694 0.43934447 -0.012454743 -0.39458916 0.33546844 -0.008953223 -0.6069559 -0.08376471 0.10537915 0.46839324 -0.44375026 0.13018952 -0.19075687 0.13073364 -0.48896298 -0.55519325 -0.18969789 0.06212801 0.35904235 -0.050592203 0.5325038 -0.6416494 1.09608 -0.08530265 0.34670308 -0.1806938 0.48845205 0.1888677 0.0826213 0.27837753 0.16729847 0.23109658 0.39058313 -0.26945186 0.6118052 -0.37896103 0.17814164 0.3273426 0.35089824 -0.052615605 -0.23849405 0.131852 -0.0537039 0.14260457 -0.057000462 -0.4378769 0.14090668 -0.29535574 -0.020874083 0.5114068 0.14021365 0.3058841 0.36281356 0.46846738 0.29551023 0.39149642 0.031988777 -0.08778816 -0.36253735 0.09993596 0.20970298 0.27719063 -0.5610022 0.40297872 0.5090234 0.71437514 0.24989091 -0.103230216 0.73674065 0.4085762 -0.1432175 -0.13477646 -0.24657358 -0.02146255 -0.092013635 -0.09174674
845 0.08443562 -0.022905957 0.5647238 -0.21847445 0.5332316 -0.40129784 0.10184448 -0.7003736 0.1255942 0.18289557 0.26563406 -0.32363263 -0.15816414 0.06303469 0.017181832 -0.047549654 -0.21778876 -0.39368957 -0.5982436 -0.14776617 -1.0656792 0.4019736 -0.04466392 -0.49427593 0.20917155 -0.45589137 -0.37613803 0.24254145 -0.5398214 -0.92013776 -0.04817656 0.032438364 -0.44463396 -0.041131858 0.52999073 0.053729367 -0.012016466 0.08498967 -0.7826209 -0.32468754 0.043767612 -0.09108238 0.22849365 -0.3821714 0.3001856 -0.41059372 0.5639908 -0.025662953 -0.7080668 -0.23627922 0.0069827973 0.37493467 -0.15090604 0.2931967 -0.0019491917 0.14475484 0.14252199 0.1869466 -0.13443965 -0.15541118 0.1107323 0.15810269 -0.14225952 -0.19192249 -0.19374207 0.8003193 0.17264827 -0.0328279 0.17851482 -0.068672635 0.36786038 0.22575256 0.22781838 -0.094395176 0.6891948 0.3037376 0.35798037 0.08905408 0.2919432 0.19756365 0.10587089 0.3663204 -0.090916105 0.58356243 0.24979216 -0.16448155 0.28594732 -0.030680561 -0.30154505 0.17848411 -0.17788617 -0.7986728 -0.24633959 -0.07759395 0.19147745 0.60080755 0.0020556098 0.04813935 -0.20409001 -0.19683863 -0.13990824 -0.094861254 0.18645717 -0.062579826 0.42565724 -0.45485184 0.44905666 0.15095931 -0.39235008 0.13067058 -0.21129689 -0.15621318 -0.13155335 0.22170264 0.22680336 -0.15432452 0.29003513 1.0203364 -0.33733404 -0.12995504 0.44249064 -0.05166829 0.44533533 -0.064529024 0.68313324 -0.34843087 -0.06297436 0.08427045
